{"learner":{"attributes":{"best_iteration":"26","best_score":"0.23295428810530072","scikit_learn":"{\"_estimator_type\": \"classifier\"}"},"feature_names":[],"feature_types":[],"gradient_booster":{"model":{"cats":{"enc":[],"feature_segments":[],"sorted_idx":[]},"gbtree_model_param":{"num_parallel_tree":"1","num_trees":"127"},"iteration_indptr":[0,1,2,3,4,5,6,7,8,9,10,11,12,13,14,15,16,17,18,19,20,21,22,23,24,25,26,27,28,29,30,31,32,33,34,35,36,37,38,39,40,41,42,43,44,45,46,47,48,49,50,51,52,53,54,55,56,57,58,59,60,61,62,63,64,65,66,67,68,69,70,71,72,73,74,75,76,77,78,79,80,81,82,83,84,85,86,87,88,89,90,91,92,93,94,95,96,97,98,99,100,101,102,103,104,105,106,107,108,109,110,111,112,113,114,115,116,117,118,119,120,121,122,123,124,125,126,127],"tree_info":[0,0,0,0,0,0,0,0,0,0,0,0,0,0,0,0,0,0,0,0,0,0,0,0,0,0,0,0,0,0,0,0,0,0,0,0,0,0,0,0,0,0,0,0,0,0,0,0,0,0,0,0,0,0,0,0,0,0,0,0,0,0,0,0,0,0,0,0,0,0,0,0,0,0,0,0,0,0,0,0,0,0,0,0,0,0,0,0,0,0,0,0,0,0,0,0,0,0,0,0,0,0,0,0,0,0,0,0,0,0,0,0,0,0,0,0,0,0,0,0,0,0,0,0,0,0,0],"trees":[{"base_weights":[-4.1220183E-3,-3.831928E-1,4.7850794E-1,-9.796181E-1,-1.689561E-1,-5.77619E-1,5.7222676E-1,-3.200272E-1,-1.1838993E0,-2.648479E-1,9.2408925E-1,2.2407246E-1,-1.0308722E0,3.36871E-1,7.355467E-1,-6.9802886E-1,1.5317173E0,5.9008026E-1,-1.297592E0,-1.4368396E-1,-1.0142543E0,1.117291E0,-1.0277846E0,1.2337313E0,-4.2750543E-1,-1.1332177E0,1.5175544E0,1.0272722E-1,1.0097942E0,1.5605222E0,6.540422E-1,-3.9757233E-2,2.4000656E-2,-6.545454E-2,6.5243594E-2,5.4649223E-2,-7.820225E-2,-6.0334682E-2,-3.4615297E-2,-9.923484E-3,5.466925E-2,-4.462053E-2,5.9065964E-2,5.1196966E-2,2.0491714E-2,-7.849056E-2,2.3642434E-2,6.084095E-2,-7.36E-2,1.9536018E-2,-5.488853E-2,8.905776E-3,-5.021435E-2,7.068865E-2,-1.9280852E-3,1.0417987E-2,-2.8188633E-2,4.2917456E-2,-5.948042E-2,-6E-2,6.314677E-2,1.5198504E-2,3.8397364E-2],"categories":[],"categories_nodes":[],"categories_segments":[],"categories_sizes":[],"default_left":[0,0,0,0,0,0,0,0,0,0,0,0,0,0,0,0,0,0,0,0,0,0,0,0,0,0,0,0,0,0,0,0,0,0,0,0,0,0,0,0,0,0,0,0,0,0,0,0,0,0,0,0,0,0,0,0,0,0,0,0,0,0,0],"id":0,"left_children":[1,3,5,7,9,11,13,15,17,19,21,23,25,27,29,31,33,35,37,39,41,43,45,47,49,51,53,55,57,59,61,-1,-1,-1,-1,-1,-1,-1,-1,-1,-1,-1,-1,-1,-1,-1,-1,-1,-1,-1,-1,-1,-1,-1,-1,-1,-1,-1,-1,-1,-1,-1,-1],"loss_changes":[5.0532104E3,1.976532E3,1.2029814E3,5.504612E2,1.1933326E3,3.6027072E2,4.2875244E2,6.7869745E2,6.302388E2,9.501421E2,3.4744116E2,2.3649655E2,1.6685803E2,7.205648E2,4.4193945E2,3.0966223E2,5.443521E1,3.7535803E2,2.6591992E2,1.4211748E3,3.6899268E2,8.160681E1,1.2706708E2,1.2725954E2,1.899406E2,1.0117993E2,9.808384E0,4.324599E2,1.8771545E2,3.522583E1,5.0243433E2,0E0,0E0,0E0,0E0,0E0,0E0,0E0,0E0,0E0,0E0,0E0,0E0,0E0,0E0,0E0,0E0,0E0,0E0,0E0,0E0,0E0,0E0,0E0,0E0,0E0,0E0,0E0,0E0,0E0,0E0,0E0,0E0],"parents":[2147483647,0,0,1,1,2,2,3,3,4,4,5,5,6,6,7,7,8,8,9,9,10,10,11,11,12,12,13,13,14,14,15,15,16,16,17,17,18,18,19,19,20,20,21,21,22,22,23,23,24,24,25,25,26,26,27,27,28,28,29,29,30,30],"right_children":[2,4,6,8,10,12,14,16,18,20,22,24,26,28,30,32,34,36,38,40,42,44,46,48,50,52,54,56,58,60,62,-1,-1,-1,-1,-1,-1,-1,-1,-1,-1,-1,-1,-1,-1,-1,-1,-1,-1,-1,-1,-1,-1,-1,-1,-1,-1,-1,-1,-1,-1,-1,-1],"split_conditions":[3.358463E-2,1.548245E3,1.189889E3,-9.989303E-3,2.8860006E8,-9.3434596E-1,8.705134E4,1.1858206E5,1.8755646E-2,2.3029578E8,3.2868505E-2,1.9793088E-2,1.1176E5,8.144024E-2,3.480365E-2,-1.0742469E-2,-2.5762415E-3,1.1535176E5,2.7471477E-2,1.1975902E5,2.0167368E-2,4.1025057E-3,1.152573E5,9.14057E4,4.109999E-2,8.37144E4,1.1525108E5,1.7447655E12,8.631517E4,8.67402E4,3.5330928E8,-3.9757233E-2,2.4000656E-2,-6.545454E-2,6.5243594E-2,5.4649223E-2,-7.820225E-2,-6.0334682E-2,-3.4615297E-2,-9.923484E-3,5.466925E-2,-4.462053E-2,5.9065964E-2,5.1196966E-2,2.0491714E-2,-7.849056E-2,2.3642434E-2,6.084095E-2,-7.36E-2,1.9536018E-2,-5.488853E-2,8.905776E-3,-5.021435E-2,7.068865E-2,-1.9280852E-3,1.0417987E-2,-2.8188633E-2,4.2917456E-2,-5.948042E-2,-6E-2,6.314677E-2,1.5198504E-2,3.8397364E-2],"split_indices":[70,14,14,65,29,34,20,19,70,29,70,71,7,71,70,65,32,18,70,19,33,65,13,1,70,10,18,0,19,3,29,0,0,0,0,0,0,0,0,0,0,0,0,0,0,0,0,0,0,0,0,0,0,0,0,0,0,0,0,0,0,0,0],"split_type":[0,0,0,0,0,0,0,0,0,0,0,0,0,0,0,0,0,0,0,0,0,0,0,0,0,0,0,0,0,0,0,0,0,0,0,0,0,0,0,0,0,0,0,0,0,0,0,0,0,0,0,0,0,0,0,0,0,0,0,0,0,0,0],"sum_hessian":[2.7618576E4,1.5469003E4,1.2149573E4,4.087108E3,1.13818955E4,9.8983685E2,1.1159736E4,9.670921E2,3.1200159E3,1.0464604E4,9.172918E2,3.576858E2,6.3215106E2,4.5729087E3,6.586827E3,8.036615E2,1.6343059E2,1.8766322E2,2.9323525E3,9.00919E3,1.4554133E3,8.350626E2,8.222917E1,1.3994273E2,2.1774307E2,6.0827783E2,2.3873268E1,3.393346E3,1.1795627E3,5.906112E2,5.9962163E3,6.546597E2,1.4900175E2,4.5E0,1.5893059E2,1.4416322E2,4.35E1,1.9694324E3,9.6292017E2,8.427499E3,5.816911E2,1.3990903E3,5.6322926E1,6.57264E2,1.7779863E2,5.2E1,3.0229172E1,1.2844273E2,1.15E1,1.108021E2,1.0694098E2,5.0199657E1,5.580781E2,2.0479172E1,3.3940976E0,2.8393892E3,5.5395667E2,1.1510245E3,2.8538195E1,3E0,5.876112E2,3.1637417E3,2.8324744E3],"tree_param":{"num_deleted":"0","num_feature":"76","num_nodes":"63","size_leaf_vector":"1"}},{"base_weights":[-1.3954524E-3,-5.002581E-1,3.4231067E-1,-6.6150653E-1,4.9485058E-1,-4.48656E-1,4.5231402E-1,-2.4081467E-1,-1.0686139E0,6.981951E-1,-1.835945E0,-5.02125E-1,1.8358105E0,6.020466E-1,-3.6860604E-2,-5.286688E-1,3.061751E-1,-7.0812714E-1,-1.3579638E0,1.909542E-1,1.026409E0,-7.745306E-2,5.95728E-2,-3.214041E-1,-1.2854198E0,4.04709E-2,7.5631544E-2,7.605426E-1,3.5827973E-1,-1.936982E0,5.081398E-2,-2.984433E-2,8.10372E-3,-4.2408567E-2,2.0375203E-2,-7.595961E-2,-1.6416805E-2,-7.0164986E-2,-4.0101174E-2,2.2548437E-2,-7.167906E-2,2.5008578E-2,5.394801E-2,-5.5151884E-3,-6.2092427E-2,-6.353578E-2,2.9838819E-2,3.9739057E-2,2.4684701E-2,-6.291417E-2,1.855748E-2,-7.922239E-2,-9.91649E-3,-4.1347988E-2,8.688443E-3],"categories":[],"categories_nodes":[],"categories_segments":[],"categories_sizes":[],"default_left":[0,0,0,0,0,0,0,0,0,0,0,0,0,0,0,0,0,0,0,0,0,0,0,0,0,0,0,0,0,0,0,0,0,0,0,0,0,0,0,0,0,0,0,0,0,0,0,0,0,0,0,0,0,0,0],"id":1,"left_children":[1,3,5,7,9,11,13,15,17,19,21,23,25,27,29,31,33,35,37,39,41,-1,-1,43,45,-1,-1,47,49,51,53,-1,-1,-1,-1,-1,-1,-1,-1,-1,-1,-1,-1,-1,-1,-1,-1,-1,-1,-1,-1,-1,-1,-1,-1],"loss_changes":[4.7568706E3,1.8162649E3,1.4294023E3,1.6677793E3,7.4950745E2,2.4595242E2,1.0562849E3,7.5453326E2,5.152866E2,2.4166028E2,4.525998E1,2.7716992E2,1.7512512E-1,4.2631958E2,5.632773E2,4.9934528E2,4.5939557E2,7.8125854E2,3.8468848E2,4.237635E2,1.1317346E2,0E0,0E0,3.6001825E2,2.2722699E2,0E0,0E0,2.2289062E2,8.8876184E2,1.048584E1,5.835522E2,0E0,0E0,0E0,0E0,0E0,0E0,0E0,0E0,0E0,0E0,0E0,0E0,0E0,0E0,0E0,0E0,0E0,0E0,0E0,0E0,0E0,0E0,0E0,0E0],"parents":[2147483647,0,0,1,1,2,2,3,3,4,4,5,5,6,6,7,7,8,8,9,9,10,10,11,11,12,12,13,13,14,14,15,15,16,16,17,17,18,18,19,19,20,20,23,23,24,24,27,27,28,28,29,29,30,30],"right_children":[2,4,6,8,10,12,14,16,18,20,22,24,26,28,30,32,34,36,38,40,42,-1,-1,44,46,-1,-1,48,50,52,54,-1,-1,-1,-1,-1,-1,-1,-1,-1,-1,-1,-1,-1,-1,-1,-1,-1,-1,-1,-1,-1,-1,-1,-1],"split_conditions":[2.8442979E-2,1.1912699E5,1.334651E3,-1.1820392E-3,3.449792E-2,1.186415E5,5.631061E-4,3.510413E3,1.2455692E-3,2.3537606E-2,1.233242E5,4.6909742E-2,4.2612858E1,1E0,8.4129E4,2.7291685E-2,-2.2170074E-2,1.062279E5,2.4716804E-2,2.5628874E-2,4.6611675E-3,-7.745306E-2,5.95728E-2,1.108389E5,1.113744E5,4.04709E-2,7.5631544E-2,3.6823623E-2,3.2294232E-2,8.42546E4,2.1815727E-2,-2.984433E-2,8.10372E-3,-4.2408567E-2,2.0375203E-2,-7.595961E-2,-1.6416805E-2,-7.0164986E-2,-4.0101174E-2,2.2548437E-2,-7.167906E-2,2.5008578E-2,5.394801E-2,-5.5151884E-3,-6.2092427E-2,-6.353578E-2,2.9838819E-2,3.9739057E-2,2.4684701E-2,-6.291417E-2,1.855748E-2,-7.922239E-2,-9.91649E-3,-4.1347988E-2,8.688443E-3],"split_indices":[70,20,14,65,66,12,67,14,67,70,3,71,15,25,3,70,66,20,70,71,67,0,0,11,1,0,0,70,70,4,71,0,0,0,0,0,0,0,0,0,0,0,0,0,0,0,0,0,0,0,0,0,0,0,0],"split_type":[0,0,0,0,0,0,0,0,0,0,0,0,0,0,0,0,0,0,0,0,0,0,0,0,0,0,0,0,0,0,0,0,0,0,0,0,0,0,0,0,0,0,0,0,0,0,0,0,0,0,0,0,0,0,0],"sum_hessian":[2.7740979E4,1.1316094E4,1.6424885E4,9.738407E3,1.5776864E3,2.00501E3,1.4419875E4,4.790081E3,4.9483267E3,1.4517339E3,1.2595251E2,1.9599174E3,4.5092617E1,1.1040295E4,3.37958E3,3.1384834E3,1.6515977E3,2.2048545E3,2.7434722E3,5.7094464E2,8.8078925E2,1.22667175E2,3.2853289E0,1.5936439E3,3.662735E2,4.033886E0,4.105873E1,6.689013E3,4.3512817E3,1.4813087E2,3.2314492E3,2.4191367E3,7.193466E2,2.1327542E2,1.4383223E3,4.3988486E2,1.7649697E3,1.2955454E3,1.4479266E3,4.812026E2,8.974205E1,3.936748E2,4.8711444E2,1.3878341E3,2.0580978E2,3.1892502E2,4.7348465E1,2.546829E3,4.142184E3,2.249996E2,4.126282E3,1.4423701E2,3.8938646E0,4.291565E2,2.8022927E3],"tree_param":{"num_deleted":"0","num_feature":"76","num_nodes":"55","size_leaf_vector":"1"}},{"base_weights":[-3.6996028E-3,-2.1058598E-1,5.401229E-1,4.7773546E-1,-4.505015E-1,-1.2781953E0,6.070972E-1,9.802645E-1,2.8337505E-1,-9.467845E-1,-2.652592E-1,-1.4800358E0,1.3692991E-1,-3.2486412E-1,7.322654E-1,1.1480168E0,1.8375762E-1,-3.2499242E-1,4.613348E-1,1.0299574E0,-1.001765E0,1.3720967E-1,-4.485788E-1,-1.6153966E0,2.2424959E-1,-7.279256E-2,1.3122014E0,1.2134125E0,-5.391993E-1,1.0291566E0,4.34384E-1,4.6570133E-2,-7.095777E-2,-6.868495E-2,3.4410942E-2,-5.7878174E-2,4.7858367E-3,-7.791265E-2,2.0476812E-2,5.459186E-2,-7.260809E-2,-4.9685113E-2,-2.3742879E-2,-4.983322E-2,1.6563777E-2,-2.7174123E-2,1.0660863E-2,-1.8695304E-2,-7.175829E-2,-7.100969E-2,6.1562423E-2,7.19198E-2,2.4849742E-3,5.769893E-2,-8.992646E-3,-5.1150315E-2,-2.659321E-3,4.348363E-2,9.0669645E-3,-4.6730507E-2,2.1515159E-2],"categories":[],"categories_nodes":[],"categories_segments":[],"categories_sizes":[],"default_left":[0,0,0,0,0,0,0,0,0,0,0,0,0,0,0,0,0,0,0,0,0,0,0,0,0,0,0,0,0,0,0,0,0,0,0,0,0,0,0,0,0,0,0,0,0,0,0,0,0,0,0,0,0,0,0,0,0,0,0,0,0],"id":2,"left_children":[1,3,5,7,9,11,13,15,17,19,21,23,25,27,29,31,33,35,37,39,41,43,45,47,49,-1,51,53,55,57,59,-1,-1,-1,-1,-1,-1,-1,-1,-1,-1,-1,-1,-1,-1,-1,-1,-1,-1,-1,-1,-1,-1,-1,-1,-1,-1,-1,-1,-1,-1],"loss_changes":[3.1148994E3,3.312212E3,9.299424E2,5.060703E2,1.3670283E3,7.771365E1,8.587344E2,1.9292383E2,4.050323E2,4.4033374E2,7.9921844E2,5.5170288E1,8.23934E1,2.8818573E2,5.733755E2,5.870166E1,3.263858E2,4.2269138E2,3.5365692E2,1.071528E2,3.851665E2,1.2988634E3,1.2283284E3,4.4304626E1,5.0997585E1,0E0,1.3440304E1,3.556096E1,2.677529E2,1.5079663E2,5.381205E2,0E0,0E0,0E0,0E0,0E0,0E0,0E0,0E0,0E0,0E0,0E0,0E0,0E0,0E0,0E0,0E0,0E0,0E0,0E0,0E0,0E0,0E0,0E0,0E0,0E0,0E0,0E0,0E0,0E0,0E0],"parents":[2147483647,0,0,1,1,2,2,3,3,4,4,5,5,6,6,7,7,8,8,9,9,10,10,11,11,12,12,13,13,14,14,15,15,16,16,17,17,18,18,19,19,20,20,21,21,22,22,23,23,24,24,26,26,27,27,28,28,29,29,30,30],"right_children":[2,4,6,8,10,12,14,16,18,20,22,24,26,28,30,32,34,36,38,40,42,44,46,48,50,-1,52,54,56,58,60,-1,-1,-1,-1,-1,-1,-1,-1,-1,-1,-1,-1,-1,-1,-1,-1,-1,-1,-1,-1,-1,-1,-1,-1,-1,-1,-1,-1,-1,-1],"split_conditions":[2.8860006E8,3.5915116E7,-7.439159E-2,-3.837116E-2,1.548245E3,3.562127E8,1.345578E3,2.6912034E7,-1.0831065E-2,-3.818093E-2,-6.5849456E-3,5.3539286E0,6.0592705E-1,3.0205254E8,-1.051289E-2,9.099139E0,8.2343E4,8.32095E4,1.058195E-2,3.2876912E-3,2.2560893E8,-2.0362929E-2,1.176473E5,-1.0132504E-3,3.406072E8,-7.279256E-2,1.716528E0,5.671906E-3,3.418395E8,3.5897606E8,-6.5996647E-3,4.6570133E-2,-7.095777E-2,-6.868495E-2,3.4410942E-2,-5.7878174E-2,4.7858367E-3,-7.791265E-2,2.0476812E-2,5.459186E-2,-7.260809E-2,-4.9685113E-2,-2.3742879E-2,-4.983322E-2,1.6563777E-2,-2.7174123E-2,1.0660863E-2,-1.8695304E-2,-7.175829E-2,-7.100969E-2,6.1562423E-2,7.19198E-2,2.4849742E-3,5.769893E-2,-8.992646E-3,-5.1150315E-2,-2.659321E-3,4.348363E-2,9.0669645E-3,-4.6730507E-2,2.1515159E-2],"split_indices":[29,29,66,66,14,29,14,29,65,65,65,34,34,29,65,46,3,20,71,33,29,65,20,56,29,0,46,33,29,29,65,0,0,0,0,0,0,0,0,0,0,0,0,0,0,0,0,0,0,0,0,0,0,0,0,0,0,0,0,0,0],"split_type":[0,0,0,0,0,0,0,0,0,0,0,0,0,0,0,0,0,0,0,0,0,0,0,0,0,0,0,0,0,0,0,0,0,0,0,0,0,0,0,0,0,0,0,0,0,0,0,0,0,0,0,0,0,0,0,0,0,0,0,0,0],"sum_hessian":[2.7683652E4,2.0054814E4,7.6288394E3,5.183184E3,1.487163E4,2.703691E2,7.35847E3,1.4444469E3,3.7387373E3,4.0410723E3,1.0830558E4,2.365797E2,3.3789433E1,8.710823E2,6.4873877E3,1.1927916E3,2.5165518E2,8.459553E2,2.892782E3,1.088758E2,3.9321965E3,3.3894478E3,7.44111E3,2.1922054E2,1.7359161E1,1.2473505E1,2.1315928E1,1.0595872E2,7.651236E2,3.247865E3,3.239523E3,1.1867986E3,5.9931498E0,6.565078E1,1.8600441E2,2.3946239E2,6.064929E2,5.871995E1,2.834062E3,9.787721E1,1.0998591E1,2.4735898E3,1.4586067E3,5.647951E2,2.8246526E3,5.6256675E3,1.8154424E3,2.9994635E1,1.8922589E2,6.747598E0,1.0611563E1,1.5034893E1,6.281034E0,9.1399025E1,1.455969E1,2.976885E2,4.6743506E2,3.028847E3,2.1901807E2,1.9588615E2,3.0436367E3],"tree_param":{"num_deleted":"0","num_feature":"76","num_nodes":"61","size_leaf_vector":"1"}},{"base_weights":[-3.18353E-3,-4.4422042E-1,3.0588913E-1,-6.0419434E-1,5.0679463E-1,-5.802065E-1,3.9921996E-1,-1.988583E-1,-1.0024203E0,6.966765E-1,-1.6334254E0,-2.621098E-1,-1.0951784E0,5.267686E-1,-3.1603828E-2,-1.0302151E0,-2.2996431E-2,-6.716969E-1,-1.2650324E0,1.331778E-1,1.0241407E0,-7.4561216E-2,6.7897074E-2,5.503299E-1,-5.002085E-1,-1.4958305E0,-6.1136943E-1,6.6715884E-1,3.1331235E-1,2.2588585E-1,-8.0878884E-1,1.9882884E-2,-6.5278456E-2,-2.8599545E-2,8.788896E-3,-7.120532E-2,-1.5809417E-2,-6.6014685E-2,-3.6970068E-2,1.8916769E-2,-6.873625E-2,2.7126653E-2,5.205323E-2,-2.9215166E-2,4.5943968E-2,-5.9478E-2,-7.1616005E-3,-6.351834E-2,-2.1491667E-2,-4.409736E-2,-4.0424286E-4,3.5867047E-2,2.0785732E-2,-2.9443966E-2,2.0062625E-2,-3.6940616E-2,1.966603E-2,-6.1418097E-2,1.1794552E-2],"categories":[],"categories_nodes":[],"categories_segments":[],"categories_sizes":[],"default_left":[0,0,0,0,0,0,0,0,0,0,0,0,0,0,0,0,0,0,0,0,0,0,0,0,0,0,0,0,0,0,0,0,0,0,0,0,0,0,0,0,0,0,0,0,0,0,0,0,0,0,0,0,0,0,0,0,0,0,0],"id":3,"left_children":[1,3,5,7,9,11,13,15,17,19,21,23,25,27,29,31,33,35,37,39,41,-1,-1,43,45,47,49,51,53,55,57,-1,-1,-1,-1,-1,-1,-1,-1,-1,-1,-1,-1,-1,-1,-1,-1,-1,-1,-1,-1,-1,-1,-1,-1,-1,-1,-1,-1],"loss_changes":[3.765285E3,1.7318547E3,1.3433629E3,1.5724829E3,6.67367E2,2.5329773E2,8.0746484E2,7.060951E2,4.259751E2,2.7785046E2,1.0600955E2,1.856402E2,1.13602234E2,3.3954346E2,6.720712E2,7.75788E2,6.6988495E2,6.664953E2,3.5803174E2,3.4984378E2,9.047705E1,0E0,0E0,1.6761081E2,2.3475215E2,2.762378E1,7.9505035E1,2.3106421E2,8.893846E2,7.710691E2,6.707207E2,0E0,0E0,0E0,0E0,0E0,0E0,0E0,0E0,0E0,0E0,0E0,0E0,0E0,0E0,0E0,0E0,0E0,0E0,0E0,0E0,0E0,0E0,0E0,0E0,0E0,0E0,0E0,0E0],"parents":[2147483647,0,0,1,1,2,2,3,3,4,4,5,5,6,6,7,7,8,8,9,9,10,10,11,11,12,12,13,13,14,14,15,15,16,16,17,17,18,18,19,19,20,20,23,23,24,24,25,25,26,26,27,27,28,28,29,29,30,30],"right_children":[2,4,6,8,10,12,14,16,18,20,22,24,26,28,30,32,34,36,38,40,42,-1,-1,44,46,48,50,52,54,56,58,-1,-1,-1,-1,-1,-1,-1,-1,-1,-1,-1,-1,-1,-1,-1,-1,-1,-1,-1,-1,-1,-1,-1,-1,-1,-1,-1,-1],"split_conditions":[2.8442979E-2,1.1912699E5,1.189889E3,-1.1820392E-3,3.449792E-2,7.014115E-1,6.393635E-3,2.2480978E-2,1.1818186E-2,2.3537606E-2,1.234947E5,-3.2403726E-2,9.17628E2,1E0,3.717818E-2,1.8755646E-2,1.56156E3,1.062279E5,2.4716804E-2,2.5628874E-2,4.4075646E-2,-7.4561216E-2,6.7897074E-2,-5.077581E-2,-1.497748E-2,4.8536547E-2,3.2966558E-2,3.6823623E-2,3.538046E-2,2.1815727E-2,4.979214E-2,1.9882884E-2,-6.5278456E-2,-2.8599545E-2,8.788896E-3,-7.120532E-2,-1.5809417E-2,-6.6014685E-2,-3.6970068E-2,1.8916769E-2,-6.873625E-2,2.7126653E-2,5.205323E-2,-2.9215166E-2,4.5943968E-2,-5.9478E-2,-7.1616005E-3,-6.351834E-2,-2.1491667E-2,-4.409736E-2,-4.0424286E-4,3.5867047E-2,2.0785732E-2,-2.9443966E-2,2.0062625E-2,-3.6940616E-2,1.966603E-2,-6.1418097E-2,1.1794552E-2],"split_indices":[70,20,14,65,66,46,68,70,68,70,2,66,14,25,71,70,14,20,70,71,68,0,0,68,66,70,71,70,70,71,65,0,0,0,0,0,0,0,0,0,0,0,0,0,0,0,0,0,0,0,0,0,0,0,0,0,0,0,0],"split_type":[0,0,0,0,0,0,0,0,0,0,0,0,0,0,0,0,0,0,0,0,0,0,0,0,0,0,0,0,0,0,0,0,0,0,0,0,0,0,0,0,0,0,0,0,0,0,0,0,0,0,0,0,0,0,0,0,0,0,0],"sum_hessian":[2.7620463E4,1.1380465E4,1.6239999E4,9.742077E3,1.6383876E3,1.5470337E3,1.4692966E4,4.8286816E3,4.913395E3,1.5054937E3,1.32894E2,9.572513E2,5.897824E2,1.1336489E4,3.3564766E3,8.4224664E2,3.986435E3,2.176258E3,2.737137E3,5.5384564E2,9.5164795E2,1.2470095E2,8.193053E0,2.1665846E2,7.4059283E2,3.214726E2,2.683098E2,6.837403E3,4.4990864E3,2.5217148E3,8.347617E2,2.3810027E2,6.041464E2,1.0346626E3,2.9517725E3,4.3335178E2,1.7429064E3,1.2827904E3,1.4543467E3,4.68607E2,8.5238655E1,4.24836E2,5.2681195E2,6.891405E1,1.4774442E2,1.8096756E2,5.5962524E2,2.9268512E2,2.8787477E1,1.4723022E2,1.210796E2,2.6731733E3,4.1642295E3,6.838847E2,3.815202E3,4.7310736E2,2.0486074E3,5.0311258E2,3.3164914E2],"tree_param":{"num_deleted":"0","num_feature":"76","num_nodes":"59","size_leaf_vector":"1"}},{"base_weights":[4.120666E-4,-4.37258E-1,3.0662155E-1,-6.1973315E-1,2.608554E-1,-4.988288E-1,3.9268452E-1,-2.5516483E-1,-9.687526E-1,4.3711758E-1,-1.6961256E0,-2.842371E-1,-1.1975738E0,2.2672579E-1,7.338863E-1,-5.3623796E-1,3.657038E-1,-6.082115E-1,-1.2986372E0,2.6367968E-1,1.2943763E0,-7.275271E-2,6.4216666E-2,1.0603207E0,-4.5816973E-1,-1.6644517E0,-2.8279802E-1,5.3708655E-1,-8.784189E-3,-1.1125605E0,8.0580336E-1,-3.181435E-2,9.690151E-3,-5.133205E-2,2.1929523E-2,-6.816878E-2,-1.48542635E-2,-5.639601E-2,7.0735854E-3,3.785572E-2,-3.7465503E-3,-6.233909E-2,6.1711602E-2,-7.255057E-2,6.0172856E-2,-5.30254E-3,-4.1284423E-2,-7.519668E-2,8.461712E-3,5.031986E-2,-6.623457E-2,1.580606E-2,4.5941167E-2,-1.499951E-2,1.5599849E-2,-5.138587E-2,6.0424265E-2,1.393784E-2,3.909584E-2],"categories":[],"categories_nodes":[],"categories_segments":[],"categories_sizes":[],"default_left":[0,0,0,0,0,0,0,0,0,0,0,0,0,0,0,0,0,0,0,0,0,0,0,0,0,0,0,0,0,0,0,0,0,0,0,0,0,0,0,0,0,0,0,0,0,0,0,0,0,0,0,0,0,0,0,0,0,0,0],"id":4,"left_children":[1,3,5,7,9,11,13,15,17,19,21,23,25,27,29,31,33,35,37,39,41,-1,-1,43,45,47,49,51,53,55,57,-1,-1,-1,-1,-1,-1,-1,-1,-1,-1,-1,-1,-1,-1,-1,-1,-1,-1,-1,-1,-1,-1,-1,-1,-1,-1,-1,-1],"loss_changes":[3.707813E3,1.4509299E3,1.1285664E3,1.1486052E3,8.1502234E2,2.3534818E2,8.3262305E2,7.7108234E2,5.4780273E2,3.2175827E2,8.2012695E1,2.820182E2,1.5712366E2,7.233231E2,6.39906E2,6.136815E2,4.1524316E2,5.7195886E2,3.9552075E2,4.3997662E2,2.6056952E2,0E0,0E0,1.7907603E2,1.9919632E2,9.90672E1,2.6842465E2,3.7007312E2,8.219397E2,8.356526E1,3.6320044E2,0E0,0E0,0E0,0E0,0E0,0E0,0E0,0E0,0E0,0E0,0E0,0E0,0E0,0E0,0E0,0E0,0E0,0E0,0E0,0E0,0E0,0E0,0E0,0E0,0E0,0E0,0E0,0E0],"parents":[2147483647,0,0,1,1,2,2,3,3,4,4,5,5,6,6,7,7,8,8,9,9,10,10,11,11,12,12,13,13,14,14,15,15,16,16,17,17,18,18,19,19,20,20,23,23,24,24,25,25,26,26,27,27,28,28,29,29,30,30],"right_children":[2,4,6,8,10,12,14,16,18,20,22,24,26,28,30,32,34,36,38,40,42,-1,-1,44,46,48,50,52,54,56,58,-1,-1,-1,-1,-1,-1,-1,-1,-1,-1,-1,-1,-1,-1,-1,-1,-1,-1,-1,-1,-1,-1,-1,-1,-1,-1,-1,-1],"split_conditions":[2.8442979E-2,1.1823852E5,1.189889E3,-1.1820392E-3,3.449792E-2,1.2729788E-2,3.300804E8,3.815891E3,1.2455692E-3,2.3178339E-2,1.234947E5,1.7421423E12,3.4853045E-2,1.7442975E12,-7.439159E-2,2.7291685E-2,-2.4984846E-2,1.7500965E12,9.566604E3,-4.554393E-3,1.194758E5,-7.275271E-2,6.4216666E-2,1.7414871E12,7.700631E-1,1.0012962E-2,4.0222697E-2,1.743923E12,1.079948E5,1.041581E5,9.129898E4,-3.181435E-2,9.690151E-3,-5.133205E-2,2.1929523E-2,-6.816878E-2,-1.48542635E-2,-5.639601E-2,7.0735854E-3,3.785572E-2,-3.7465503E-3,-6.233909E-2,6.1711602E-2,-7.255057E-2,6.0172856E-2,-5.30254E-3,-4.1284423E-2,-7.519668E-2,8.461712E-3,5.031986E-2,-6.623457E-2,1.580606E-2,4.5941167E-2,-1.499951E-2,1.5599849E-2,-5.138587E-2,6.0424265E-2,1.393784E-2,3.909584E-2],"split_indices":[70,18,14,65,66,66,29,14,67,65,2,0,71,0,66,70,66,0,14,66,17,0,0,0,46,65,71,0,3,4,18,0,0,0,0,0,0,0,0,0,0,0,0,0,0,0,0,0,0,0,0,0,0,0,0,0,0,0,0],"split_type":[0,0,0,0,0,0,0,0,0,0,0,0,0,0,0,0,0,0,0,0,0,0,0,0,0,0,0,0,0,0,0,0,0,0,0,0,0,0,0,0,0,0,0,0,0,0,0,0,0,0,0,0,0,0,0,0,0,0,0],"sum_hessian":[2.7664379E4,1.1387548E4,1.6276831E4,9.027915E3,2.3596335E3,1.5708344E3,1.4705996E4,4.4164463E3,4.6114683E3,2.165378E3,1.9425551E2,1.2028374E3,3.6799686E2,9.894855E3,4.811141E3,3.040238E3,1.3762081E3,2.2047126E3,2.4067556E3,1.802092E3,3.63286E2,1.8772824E2,6.527262E0,1.3719302E2,1.0656444E3,2.4310356E2,1.2489331E2,4.268475E3,5.6263804E3,1.7982126E2,4.63132E3,2.2809895E3,7.592487E2,1.3655421E2,1.2396539E3,3.9068512E2,1.8140276E3,2.238034E3,1.6872179E2,6.1859766E2,1.1834943E3,2.8677044E1,3.3460898E2,1.7945297E1,1.19247734E2,6.8070184E2,3.8494254E2,2.1805678E2,2.5046774E1,5.8891575E1,6.600173E1,3.465638E3,8.028371E2,2.933021E3,2.6933594E3,1.6922964E2,1.0591611E1,1.2643622E3,3.3669575E3],"tree_param":{"num_deleted":"0","num_feature":"76","num_nodes":"59","size_leaf_vector":"1"}},{"base_weights":[-1.8476374E-3,-4.1891146E-1,2.889151E-1,-6.0268056E-1,2.4853536E-1,-3.911701E-1,3.8624033E-1,-2.6269737E-1,-9.2200994E-1,4.085913E-1,-1.6689388E0,2.519898E-1,-6.039842E-1,6.8532133E-1,1.8772419E-1,-8.49163E-1,-1.2102003E-2,-5.7622916E-1,-1.2475476E0,2.3967367E-1,1.1916974E0,-7.03878E-2,5.8694076E-2,-1.3223957E-1,1.4644969E0,-6.669121E-1,1.6737449E0,-7.5011775E-2,7.0915204E-1,-8.624586E-1,2.537081E-1,-7.4587967E-3,-7.146624E-2,1.3232912E-2,-2.6087983E-2,-6.578756E-2,-1.2558534E-2,-6.1440114E-2,-3.220371E-2,3.7559405E-2,-5.9694955E-3,-7.6247744E-2,5.998874E-2,1.34337805E-2,-7.071729E-2,-6.405215E-2,6.328184E-2,-7.388108E-2,-2.2614311E-2,2.438766E-2,7.149142E-2,3.0334882E-2,-1.56701E-2,-4.971793E-2,7.849629E-3,1.3394568E-3,2.2218816E-2],"categories":[],"categories_nodes":[],"categories_segments":[],"categories_sizes":[],"default_left":[0,0,0,0,0,0,0,0,0,0,0,0,0,0,0,0,0,0,0,0,0,0,0,0,0,0,0,0,0,0,0,0,0,0,0,0,0,0,0,0,0,0,0,0,0,0,0,0,0,0,0,0,0,0,0,0,0],"id":5,"left_children":[1,3,5,7,9,11,13,15,17,19,21,23,25,27,29,31,33,35,37,39,41,-1,-1,43,45,47,49,-1,51,53,55,-1,-1,-1,-1,-1,-1,-1,-1,-1,-1,-1,-1,-1,-1,-1,-1,-1,-1,-1,-1,-1,-1,-1,-1,-1,-1],"loss_changes":[3.3427185E3,1.3890131E3,1.0751875E3,9.637151E2,7.5114636E2,2.7853012E2,8.434922E2,6.322063E2,5.146194E2,2.983634E2,5.6260437E1,2.3609785E2,2.2019635E2,3.4721606E2,5.9211633E2,7.9976245E2,6.6201605E2,6.221074E2,2.9961426E2,5.0555966E2,3.848614E2,0E0,0E0,2.9569577E2,4.647513E1,1.7729749E2,3.9092636E0,0E0,3.0464917E2,2.0374353E2,5.341106E2,0E0,0E0,0E0,0E0,0E0,0E0,0E0,0E0,0E0,0E0,0E0,0E0,0E0,0E0,0E0,0E0,0E0,0E0,0E0,0E0,0E0,0E0,0E0,0E0,0E0,0E0],"parents":[2147483647,0,0,1,1,2,2,3,3,4,4,5,5,6,6,7,7,8,8,9,9,10,10,11,11,12,12,13,13,14,14,15,15,16,16,17,17,18,18,19,19,20,20,23,23,24,24,25,25,26,26,28,28,29,29,30,30],"right_children":[2,4,6,8,10,12,14,16,18,20,22,24,26,28,30,32,34,36,38,40,42,-1,-1,44,46,48,50,-1,52,54,56,-1,-1,-1,-1,-1,-1,-1,-1,-1,-1,-1,-1,-1,-1,-1,-1,-1,-1,-1,-1,-1,-1,-1,-1,-1,-1],"split_conditions":[2.8442979E-2,1.1816374E5,1.345578E3,-1.1820392E-3,3.449792E-2,1.7440166E12,-2.3396522E-2,2.3998689E-2,1.1818186E-2,2.3178339E-2,1.234947E5,-1.040886E-2,1.186415E5,2.8789682E-2,-1.38014015E-2,6.1013736E-4,-6.5849456E-3,1.062279E5,2.232741E-3,-4.554393E-3,1.1975902E5,-7.03878E-2,5.8694076E-2,1.2548916E-2,8.33953E4,8.506768E4,-1.0808712E0,-7.5011775E-2,1.7637542E12,4.416481E3,2.2428062E8,-7.4587967E-3,-7.146624E-2,1.3232912E-2,-2.6087983E-2,-6.578756E-2,-1.2558534E-2,-6.1440114E-2,-3.220371E-2,3.7559405E-2,-5.9694955E-3,-7.6247744E-2,5.998874E-2,1.34337805E-2,-7.071729E-2,-6.405215E-2,6.328184E-2,-7.388108E-2,-2.2614311E-2,2.438766E-2,7.149142E-2,3.0334882E-2,-1.56701E-2,-4.971793E-2,7.849629E-3,1.3394568E-3,2.2218816E-2],"split_indices":[70,19,14,65,66,0,66,70,68,65,2,68,12,70,66,66,65,20,33,66,19,0,0,66,3,20,50,0,0,14,29,0,0,0,0,0,0,0,0,0,0,0,0,0,0,0,0,0,0,0,0,0,0,0,0,0,0],"split_type":[0,0,0,0,0,0,0,0,0,0,0,0,0,0,0,0,0,0,0,0,0,0,0,0,0,0,0,0,0,0,0,0,0,0,0,0,0,0,0,0,0,0,0,0,0,0,0,0,0,0,0,0,0,0,0,0,0],"sum_hessian":[2.7563037E4,1.132223E4,1.6240806E4,8.877949E3,2.4442812E3,2.0328342E3,1.4207972E4,4.3008013E3,4.5771484E3,2.2566965E3,1.8758469E2,5.053617E2,1.5274725E3,5.6672856E3,8.540687E3,1.2868385E3,3.0139626E3,2.220907E3,2.3562412E3,1.8573651E3,3.9933148E2,1.827357E2,4.8489785E0,3.8443094E2,1.2093076E2,1.487095E3,4.0377472E1,5.15406E1,5.6157446E3,5.0418222E2,8.0365044E3,7.54616E2,5.322224E2,1.9628643E3,1.0510984E3,4.3666815E2,1.7842389E3,1.4248492E3,9.31392E2,6.632832E2,1.1940819E3,3.5645184E1,3.636863E2,2.9951407E2,8.491687E1,3.9994273E0,1.16931335E2,1.1646946E2,1.3706256E3,4.507256E0,3.5870216E1,5.3757144E3,2.4003024E2,3.7075958E2,1.3342264E2,4.6465977E3,3.3899067E3],"tree_param":{"num_deleted":"0","num_feature":"76","num_nodes":"57","size_leaf_vector":"1"}},{"base_weights":[-5.98315E-3,-6.579757E-1,1.2644966E-1,2.1691792E-1,-7.615049E-1,4.200831E-1,-1.7251928E-1,-1.927653E-1,1.4562651E0,-8.5731727E-1,3.3360747E-1,8.241872E-1,3.4443268E-1,-2.4415232E-1,1.2045827E0,2.5278202E-1,-1.637329E0,-6.1492752E-2,1.5640994E0,-1.203786E0,-5.281987E-1,9.536136E-1,-1.0948713E0,9.5869964E-1,1.5943968E-1,2.501243E-1,8.166748E-1,-3.526291E-1,4.721154E-1,-8.116491E-2,1.3201673E0,4.950416E-2,-1.8157886E-2,-1.0453513E-2,-7.1112424E-2,-1.3947822E-3,6.6310346E-2,-2.2434363E-2,-6.0831945E-2,-4.8842423E-2,-6.2494045E-3,5.0321043E-2,-4.5518532E-2,5.614048E-2,-6.463267E-2,3.9424315E-2,-4.2259686E-2,-5.075385E-2,5.760141E-2,1.1326216E-2,-4.3305483E-2,1.3214892E-2,4.3165427E-2,-4.4969356E-4,-2.8642574E-2,2.4234444E-2,-5.6103706E-2,5.3649504E-2,-2.9586103E-2],"categories":[],"categories_nodes":[],"categories_segments":[],"categories_sizes":[],"default_left":[0,0,0,0,0,0,0,0,0,0,0,0,0,0,0,0,0,0,0,0,0,0,0,0,0,0,0,0,0,0,0,0,0,0,0,0,0,0,0,0,0,0,0,0,0,0,0,0,0,0,0,0,0,0,0,0,0,0,0],"id":6,"left_children":[1,3,5,7,9,11,13,15,17,19,21,23,25,27,29,31,33,-1,35,37,39,41,43,45,47,49,51,53,55,-1,57,-1,-1,-1,-1,-1,-1,-1,-1,-1,-1,-1,-1,-1,-1,-1,-1,-1,-1,-1,-1,-1,-1,-1,-1,-1,-1,-1,-1],"loss_changes":[2.3677434E3,4.194978E2,2.0009464E3,2.4940001E2,4.3466846E2,3.5124927E2,1.1144271E3,2.383169E2,4.179129E1,4.3348926E2,2.9666617E2,1.619165E2,4.312434E2,8.3438617E2,2.1147083E2,1.9778554E2,1.64039E1,0E0,1.7769012E1,3.770017E2,5.0345398E2,1.4997067E2,1.3436038E2,8.27738E1,5.6195636E2,3.5584952E2,2.0541101E2,1.156969E3,3.550351E2,0E0,2.4426147E1,0E0,0E0,0E0,0E0,0E0,0E0,0E0,0E0,0E0,0E0,0E0,0E0,0E0,0E0,0E0,0E0,0E0,0E0,0E0,0E0,0E0,0E0,0E0,0E0,0E0,0E0,0E0,0E0],"parents":[2147483647,0,0,1,1,2,2,3,3,4,4,5,5,6,6,7,7,8,8,9,9,10,10,11,11,12,12,13,13,14,14,15,15,16,16,18,18,19,19,20,20,21,21,22,22,23,23,24,24,25,25,26,26,27,27,28,28,30,30],"right_children":[2,4,6,8,10,12,14,16,18,20,22,24,26,28,30,32,34,-1,36,38,40,42,44,46,48,50,52,54,56,-1,58,-1,-1,-1,-1,-1,-1,-1,-1,-1,-1,-1,-1,-1,-1,-1,-1,-1,-1,-1,-1,-1,-1,-1,-1,-1,-1,-1,-1],"split_conditions":[1.345578E3,1.7440166E12,-6.898659E-4,-1.0944703E-3,1.1816374E5,-8.041705E-3,3.300804E8,1.2548916E-2,8.33953E4,2.2560893E8,1.2426054E-2,1.7637542E12,-1.12769E-3,1.1912699E5,9.089467E4,-1.091267E0,8.364159E4,-6.1492752E-2,-1.8814434E0,8.983771E7,8.39186E2,-5.637595E-4,1.7526147E12,8.008449E0,8.68922E4,-1.3992589E-3,-5.513221E-3,1.7486949E12,3.449792E-2,-8.116491E-2,3.2E1,4.950416E-2,-1.8157886E-2,-1.0453513E-2,-7.1112424E-2,-1.3947822E-3,6.6310346E-2,-2.2434363E-2,-6.0831945E-2,-4.8842423E-2,-6.2494045E-3,5.0321043E-2,-4.5518532E-2,5.614048E-2,-6.463267E-2,3.9424315E-2,-4.2259686E-2,-5.075385E-2,5.760141E-2,1.1326216E-2,-4.3305483E-2,1.3214892E-2,4.3165427E-2,-4.4969356E-4,-2.8642574E-2,2.4234444E-2,-5.6103706E-2,5.3649504E-2,-2.9586103E-2],"split_indices":[14,0,67,67,19,67,29,66,3,29,66,0,67,20,19,34,20,0,34,29,14,65,0,46,3,67,33,0,66,0,38,0,0,0,0,0,0,0,0,0,0,0,0,0,0,0,0,0,0,0,0,0,0,0,0,0,0,0,0],"split_type":[0,0,0,0,0,0,0,0,0,0,0,0,0,0,0,0,0,0,0,0,0,0,0,0,0,0,0,0,0,0,0,0,0,0,0,0,0,0,0,0,0,0,0,0,0,0,0,0,0,0,0,0,0,0,0,0,0,0,0],"sum_hessian":[2.7419867E4,4.6285664E3,2.27913E4,4.8964368E2,4.1389224E3,1.1498047E4,1.1293254E4,3.6863184E2,1.2101185E2,3.8061372E3,3.3278525E2,1.811517E3,9.686529E3,1.0735638E4,5.576156E2,2.8236646E2,8.626537E1,3.7465901E0,1.1726526E2,1.8528999E3,1.9532373E3,2.3229437E2,1.0049087E2,1.5062777E3,3.0523932E2,8.0753784E3,1.6111512E3,9.324045E3,1.4115931E3,1.86721E1,5.389435E2,1.1765872E2,1.6470775E2,8.256344E0,7.800903E1,6.5234513E0,1.10741806E2,6.128205E2,1.2400795E3,6.815052E2,1.2717322E3,2.0312906E2,2.9165312E1,1.7046076E1,8.344479E1,1.4869341E3,1.9343626E1,1.4430305E2,1.6093625E2,7.880847E3,1.9453105E2,5.655416E2,1.0456096E3,4.8083936E3,4.5156514E3,1.318225E3,9.336818E1,5.3383167E2,5.11183E0],"tree_param":{"num_deleted":"0","num_feature":"76","num_nodes":"59","size_leaf_vector":"1"}},{"base_weights":[-1.6513055E-3,-3.8986173E-1,2.6632428E-1,-5.256553E-1,4.3099195E-1,-3.6813182E-1,3.561735E-1,-2.3148537E-1,-9.340627E-1,5.9040123E-1,-1.4309653E0,-1.9749117E-1,-8.9143723E-1,6.37756E-1,1.6926241E-1,-1.4078267E0,-1.1467033E-1,-8.057955E-2,-1.1229229E0,5.2868724E-2,9.1203076E-1,-6.609762E-2,6.375977E-2,-4.4635263E-1,6.398839E-1,-1.6458966E0,-2.962002E-1,-7.2836176E-2,6.620289E-1,-9.288964E-1,2.371913E-1,6.2275223E-2,-6.002704E-2,-3.3427354E-2,1.3090648E-3,-7.1988046E-2,1.3192056E-2,-5.5738255E-2,-3.5359133E-2,4.821833E-2,-1.8901808E-2,-1.3056014E-3,4.1406136E-2,-2.1035016E-2,6.4697675E-2,-6.9044456E-2,3.3764854E-2,-6.8063825E-2,5.912754E-3,1.289553E-2,-6.256458E-2,2.8301803E-2,-1.29135065E-2,-5.299333E-2,7.832602E-3,5.7604875E-2,7.4655805E-3],"categories":[],"categories_nodes":[],"categories_segments":[],"categories_sizes":[],"default_left":[0,0,0,0,0,0,0,0,0,0,0,0,0,0,0,0,0,0,0,0,0,0,0,0,0,0,0,0,0,0,0,0,0,0,0,0,0,0,0,0,0,0,0,0,0,0,0,0,0,0,0,0,0,0,0,0,0],"id":7,"left_children":[1,3,5,7,9,11,13,15,17,19,21,23,25,27,29,31,33,35,37,39,41,-1,-1,43,45,47,49,-1,51,53,55,-1,-1,-1,-1,-1,-1,-1,-1,-1,-1,-1,-1,-1,-1,-1,-1,-1,-1,-1,-1,-1,-1,-1,-1,-1,-1],"loss_changes":[2.858223E3,1.2509088E3,9.2672595E2,1.1565034E3,4.7373743E2,1.7992249E2,7.492859E2,7.6909436E2,6.4965015E2,2.5379984E2,8.700644E1,3.1749524E2,2.2210257E2,3.4020068E2,6.3871936E2,1.4151465E2,5.41337E2,5.1661554E2,2.1212012E2,3.3407916E2,1.0687341E2,0E0,0E0,1.9353214E2,1.7017548E2,2.2068787E1,2.1876659E2,0E0,2.5240625E2,2.223899E2,4.8995514E2,0E0,0E0,0E0,0E0,0E0,0E0,0E0,0E0,0E0,0E0,0E0,0E0,0E0,0E0,0E0,0E0,0E0,0E0,0E0,0E0,0E0,0E0,0E0,0E0,0E0,0E0],"parents":[2147483647,0,0,1,1,2,2,3,3,4,4,5,5,6,6,7,7,8,8,9,9,10,10,11,11,12,12,13,13,14,14,15,15,16,16,17,17,18,18,19,19,20,20,23,23,24,24,25,25,26,26,28,28,29,29,30,30],"right_children":[2,4,6,8,10,12,14,16,18,20,22,24,26,28,30,32,34,36,38,40,42,-1,-1,44,46,48,50,-1,52,54,56,-1,-1,-1,-1,-1,-1,-1,-1,-1,-1,-1,-1,-1,-1,-1,-1,-1,-1,-1,-1,-1,-1,-1,-1,-1,-1],"split_conditions":[2.8442979E-2,1.1912699E5,1.334651E3,8.7836245E-4,3.449792E-2,1.2729788E-2,-2.3396522E-2,8.39186E2,-7.1339885E-4,2.3537606E-2,1.234161E5,4.249208E-3,2.5235245E-2,2.8789682E-2,-1.38014015E-2,9.56483E4,2.2480978E-2,1.1005581E5,2.4716804E-2,1.7549547E12,-2.6385417E-2,-6.609762E-2,6.375977E-2,1.186415E5,1.0548184E-2,1.11574625E5,4.109999E-2,-7.2836176E-2,1.7637542E12,4.416481E3,2.8699812E-2,6.2275223E-2,-6.002704E-2,-3.3427354E-2,1.3090648E-3,-7.1988046E-2,1.3192056E-2,-5.5738255E-2,-3.5359133E-2,4.821833E-2,-1.8901808E-2,-1.3056014E-3,4.1406136E-2,-2.1035016E-2,6.4697675E-2,-6.9044456E-2,3.3764854E-2,-6.8063825E-2,5.912754E-3,1.289553E-2,-6.256458E-2,2.8301803E-2,-1.29135065E-2,-5.299333E-2,7.832602E-3,5.7604875E-2,7.4655805E-3],"split_indices":[70,20,14,65,66,66,66,14,67,70,8,66,66,70,66,4,70,17,70,0,65,0,0,12,71,19,70,0,0,14,70,0,0,0,0,0,0,0,0,0,0,0,0,0,0,0,0,0,0,0,0,0,0,0,0,0,0],"split_type":[0,0,0,0,0,0,0,0,0,0,0,0,0,0,0,0,0,0,0,0,0,0,0,0,0,0,0,0,0,0,0,0,0,0,0,0,0,0,0,0,0,0,0,0,0,0,0,0,0,0,0,0,0,0,0,0,0],"sum_hessian":[2.7472748E4,1.1219233E4,1.6253516E4,9.627001E3,1.5922325E3,2.0158451E3,1.4237671E4,5.597075E3,4.0299258E3,1.4672948E3,1.2493781E2,1.5211895E3,4.946556E2,5.679325E3,8.558345E3,5.0460376E2,5.092471E3,7.304328E2,3.299493E3,5.4972144E2,9.1757336E2,1.16837204E2,8.100606E0,1.1730383E3,3.4815103E2,2.1737238E2,2.7728323E2,5.4796894E1,5.6245283E3,4.978167E2,8.0605283E3,1.48445835E1,4.8975916E2,8.635622E2,4.228909E3,1.4011084E2,5.9032196E2,1.5451918E3,1.7543013E3,1.7172267E2,3.7799875E2,1.0588616E2,8.116872E2,1.130233E3,4.2805298E1,2.7072882E1,3.2107816E2,2.1087553E2,6.496836E0,1.8686266E2,9.042058E1,5.376339E3,2.4818929E2,3.680667E2,1.2975E2,3.2396515E2,7.7365635E3],"tree_param":{"num_deleted":"0","num_feature":"76","num_nodes":"57","size_leaf_vector":"1"}},{"base_weights":[6.3417493E-3,-2.7780914E-1,3.6654067E-1,-7.526395E-1,-1.0947617E-1,-3.83187E-1,4.3380094E-1,-1.234772E0,-5.3259844E-1,-1.4808434E-2,-9.161388E-1,3.1196997E-1,-7.8948456E-1,6.774771E-1,2.3816575E-1,-2.5523186E-1,-1.4357772E0,-9.1449076E-1,-7.236567E-2,-1.01041675E-1,9.4408494E-1,-1.7588351E0,-4.9241796E-1,1.1592171E0,-2.749768E-1,-1.4222552E0,-4.812065E-1,1.9103363E-1,7.9344094E-1,-1.3813046E-1,3.6975443E-1,5.527396E-2,-5.2124027E-2,-5.9961718E-2,1.2924364E-3,2.5325635E-2,-4.492406E-2,-1.360194E-2,4.7328737E-2,-5.1384192E-2,-1.397736E-3,2.4838408E-2,4.8344236E-2,-7.4217E-2,-4.9480345E-2,5.174957E-2,-4.7740832E-2,5.696801E-2,-6.575789E-2,2.0570898E-2,-4.597284E-2,-6.0104378E-2,5.7161607E-2,-2.1780487E-3,-4.2281475E-2,-4.5359053E-2,2.0463042E-2,3.296986E-2,-4.1615434E-2,-5.0950278E-2,5.6935106E-3,3.1305496E-2,1.0411017E-2],"categories":[],"categories_nodes":[],"categories_segments":[],"categories_sizes":[],"default_left":[0,0,0,0,0,0,0,0,0,0,0,0,0,0,0,0,0,0,0,0,0,0,0,0,0,0,0,0,0,0,0,0,0,0,0,0,0,0,0,0,0,0,0,0,0,0,0,0,0,0,0,0,0,0,0,0,0,0,0,0,0,0,0],"id":8,"left_children":[1,3,5,7,9,11,13,15,17,19,21,23,25,27,29,31,33,35,37,39,41,43,45,47,49,51,53,55,57,59,61,-1,-1,-1,-1,-1,-1,-1,-1,-1,-1,-1,-1,-1,-1,-1,-1,-1,-1,-1,-1,-1,-1,-1,-1,-1,-1,-1,-1,-1,-1,-1,-1],"loss_changes":[2.817528E3,1.2299188E3,6.1232764E2,4.266079E2,8.676548E2,2.8267224E2,5.3093115E2,2.4797827E2,4.8627826E2,8.410183E2,4.2524487E2,1.8410248E2,1.22477844E2,2.79677E2,3.061117E2,3.7229343E2,9.7232666E1,4.8892065E2,4.2251852E2,7.299775E2,7.0979004E1,1.781018E1,9.976979E2,1.14829254E2,1.5180849E2,4.9418365E1,1.0464075E2,4.0671738E2,2.2713013E2,5.104853E2,2.0681384E2,0E0,0E0,0E0,0E0,0E0,0E0,0E0,0E0,0E0,0E0,0E0,0E0,0E0,0E0,0E0,0E0,0E0,0E0,0E0,0E0,0E0,0E0,0E0,0E0,0E0,0E0,0E0,0E0,0E0,0E0,0E0,0E0],"parents":[2147483647,0,0,1,1,2,2,3,3,4,4,5,5,6,6,7,7,8,8,9,9,10,10,11,11,12,12,13,13,14,14,15,15,16,16,17,17,18,18,19,19,20,20,21,21,22,22,23,23,24,24,25,25,26,26,27,27,28,28,29,29,30,30],"right_children":[2,4,6,8,10,12,14,16,18,20,22,24,26,28,30,32,34,36,38,40,42,44,46,48,50,52,54,56,58,60,62,-1,-1,-1,-1,-1,-1,-1,-1,-1,-1,-1,-1,-1,-1,-1,-1,-1,-1,-1,-1,-1,-1,-1,-1,-1,-1,-1,-1,-1,-1,-1,-1],"split_conditions":[3.358463E-2,1.548245E3,1.189889E3,1.0872159E5,3.449792E-2,-9.3434596E-1,-2.4100747E-2,9.567845E4,2.575173E-2,2.8860006E8,1.079124E5,1.9793088E-2,1E0,-6.0630523E-2,-6.5996647E-3,-8.0552315E-3,9.59552E2,1.8755646E-2,1.1824514E5,-2.0990815E-2,3.300804E8,2.9845405E0,8.053523E7,9.14057E4,4.109999E-2,1.108192E5,-1.8034593E-3,4.9687404E-2,3.5897606E8,-5.6599868E-3,1.8138381E-3,5.527396E-2,-5.2124027E-2,-5.9961718E-2,1.2924364E-3,2.5325635E-2,-4.492406E-2,-1.360194E-2,4.7328737E-2,-5.1384192E-2,-1.397736E-3,2.4838408E-2,4.8344236E-2,-7.4217E-2,-4.9480345E-2,5.174957E-2,-4.7740832E-2,5.696801E-2,-6.575789E-2,2.0570898E-2,-4.597284E-2,-6.0104378E-2,5.7161607E-2,-2.1780487E-3,-4.2281475E-2,-4.5359053E-2,2.0463042E-2,3.296986E-2,-4.1615434E-2,-5.0950278E-2,5.6935106E-3,3.1305496E-2,1.0411017E-2],"split_indices":[70,14,14,18,66,34,66,20,70,29,8,71,25,66,65,65,9,70,19,65,29,34,29,1,70,1,67,70,29,66,65,0,0,0,0,0,0,0,0,0,0,0,0,0,0,0,0,0,0,0,0,0,0,0,0,0,0,0,0,0,0,0,0],"split_type":[0,0,0,0,0,0,0,0,0,0,0,0,0,0,0,0,0,0,0,0,0,0,0,0,0,0,0,0,0,0,0,0,0,0,0,0,0,0,0,0,0,0,0,0,0,0,0,0,0,0,0,0,0,0,0,0,0,0,0,0,0,0,0],"sum_hessian":[2.7526143E4,1.5387558E4,1.2138586E4,4.0264255E3,1.1361132E4,9.9894806E2,1.1139639E4,1.2603209E3,2.7661045E3,1.01687705E4,1.1923608E3,3.6857126E2,6.303768E2,4.959634E3,6.1800044E3,2.149746E2,1.0453463E3,1.5111741E3,1.2549304E3,9.330567E3,8.38203E2,3.9788873E2,7.944721E2,1.5043951E2,2.1813174E2,2.0532132E2,4.2505548E2,9.552428E2,4.0043909E3,1.6011742E3,4.5788306E3,8.3774826E1,1.3119977E2,1.0021391E3,4.320725E1,1.7925926E2,1.3319148E3,1.0350033E3,2.1992719E2,4.925462E2,8.838021E3,3.7881287E2,4.593901E2,3.335863E2,6.430243E1,2.2370561E2,5.707665E2,1.3789612E2,1.2543387E1,1.1486117E2,1.0327057E2,2.0015366E2,5.1676598E0,2.4475728E2,1.8029819E2,1.8558049E2,7.6966235E2,3.938776E3,6.561495E1,3.1642316E2,1.284751E3,9.583635E2,3.620467E3],"tree_param":{"num_deleted":"0","num_feature":"76","num_nodes":"63","size_leaf_vector":"1"}},{"base_weights":[6.7473305E-3,-3.550021E-1,2.585822E-1,-5.247499E-1,2.5293916E-1,-3.6410594E-1,3.4102288E-1,-6.804318E-1,8.908157E-2,3.8791552E-1,-1.5146794E0,7.716896E-1,-4.4507667E-1,5.947091E-1,1.7417039E-1,-1.8095872E-1,-8.7144613E-1,4.5546025E-1,-4.190693E-1,2.379205E-1,1.1051867E0,-6.430613E-2,5.8198385E-2,-6.740335E-2,1.2996998E0,-2.895016E-1,-1.2212856E0,4.6816933E-1,1.0159268E0,-7.8664285E-1,2.3363033E-1,-1.9392906E-2,3.26069E-2,1.501287E-2,-3.7234426E-2,-3.2644864E-2,2.67573E-2,-4.4901345E-2,-3.916771E-3,3.5063863E-2,-4.6250965E-3,-7.747406E-2,5.5935476E-2,5.8209684E-2,-6.5263696E-2,4.8474416E-2,-1.689836E-2,-5.995941E-2,5.5919226E-2,1.361814E-3,2.8426709E-2,4.4601038E-2,-7.0130095E-2,-4.807932E-2,1.2809903E-2,5.4878272E-2,7.4282214E-3],"categories":[],"categories_nodes":[],"categories_segments":[],"categories_sizes":[],"default_left":[0,0,0,0,0,0,0,0,0,0,0,0,0,0,0,0,0,0,0,0,0,0,0,0,0,0,0,0,0,0,0,0,0,0,0,0,0,0,0,0,0,0,0,0,0,0,0,0,0,0,0,0,0,0,0,0,0],"id":9,"left_children":[1,3,5,7,9,11,13,15,17,19,21,23,25,27,29,31,33,35,37,39,41,-1,-1,-1,43,45,47,49,51,53,55,-1,-1,-1,-1,-1,-1,-1,-1,-1,-1,-1,-1,-1,-1,-1,-1,-1,-1,-1,-1,-1,-1,-1,-1,-1,-1],"loss_changes":[2.5045535E3,1.1645648E3,8.321787E2,8.430217E2,5.883636E2,1.7466525E2,6.05777E2,6.71176E2,3.3260553E2,2.4606808E2,5.0650238E1,1.6629044E2,2.1338895E2,3.0220618E2,4.935654E2,5.899819E2,3.7737598E2,2.8229456E2,1.6899857E2,4.2797046E2,3.5565698E2,0E0,0E0,0E0,5.0106445E1,2.9510297E2,2.1682672E2,4.5989136E2,3.617284E2,2.3187567E2,4.4346643E2,0E0,0E0,0E0,0E0,0E0,0E0,0E0,0E0,0E0,0E0,0E0,0E0,0E0,0E0,0E0,0E0,0E0,0E0,0E0,0E0,0E0,0E0,0E0,0E0,0E0,0E0],"parents":[2147483647,0,0,1,1,2,2,3,3,4,4,5,5,6,6,7,7,8,8,9,9,10,10,11,11,12,12,13,13,14,14,15,15,16,16,17,17,18,18,19,19,20,20,24,24,25,25,26,26,27,27,28,28,29,29,30,30],"right_children":[2,4,6,8,10,12,14,16,18,20,22,24,26,28,30,32,34,36,38,40,42,-1,-1,-1,44,46,48,50,52,54,56,-1,-1,-1,-1,-1,-1,-1,-1,-1,-1,-1,-1,-1,-1,-1,-1,-1,-1,-1,-1,-1,-1,-1,-1,-1,-1],"split_conditions":[2.8442979E-2,1.1816374E5,1.309525E3,4.66901E3,3.449792E-2,-3.818093E-2,-2.3396522E-2,-7.1339885E-4,-1.1820392E-3,2.3178339E-2,1.234947E5,9.608E4,4.6640486E-2,-2.9963788E-2,-1.38014015E-2,2.7482422E-2,5.3465868E7,2.30883E-2,2.4716804E-2,-4.554393E-3,1.1927E5,-6.430613E-2,5.8198385E-2,-6.740335E-2,3.7834789E-3,1.7423295E12,1.15E5,4.3074697E-2,1.094825E5,4.416481E3,2.8699812E-2,-1.9392906E-2,3.26069E-2,1.501287E-2,-3.7234426E-2,-3.2644864E-2,2.67573E-2,-4.4901345E-2,-3.916771E-3,3.5063863E-2,-4.6250965E-3,-7.747406E-2,5.5935476E-2,5.8209684E-2,-6.5263696E-2,4.8474416E-2,-1.689836E-2,-5.995941E-2,5.5919226E-2,1.361814E-3,2.8426709E-2,4.4601038E-2,-7.0130095E-2,-4.807932E-2,1.2809903E-2,5.4878272E-2,7.4282214E-3],"split_indices":[70,19,14,14,66,65,66,67,65,65,2,6,71,66,66,70,29,70,70,66,6,0,0,0,33,0,3,70,1,14,70,0,0,0,0,0,0,0,0,0,0,0,0,0,0,0,0,0,0,0,0,0,0,0,0,0,0],"split_type":[0,0,0,0,0,0,0,0,0,0,0,0,0,0,0,0,0,0,0,0,0,0,0,0,0,0,0,0,0,0,0,0,0,0,0,0,0,0,0,0,0,0,0,0,0,0,0,0,0,0,0,0,0,0,0,0,0],"sum_hessian":[2.7490006E4,1.1282621E4,1.6207384E4,8.820047E3,2.462574E3,1.894499E3,1.4312885E4,7.0355576E3,1.7844896E3,2.288596E3,1.7397794E2,1.2550336E2,1.7689957E3,5.677748E3,8.635138E3,1.9468337E3,5.0887236E3,1.0369491E3,7.475405E2,1.8938811E3,3.9471478E2,1.6914108E2,4.8368535E0,2.1813972E1,1.03689384E2,1.4747795E3,2.942162E2,4.3677314E3,1.3100167E3,5.0252966E2,8.1326074E3,1.4921696E3,4.5466425E2,2.3122966E2,4.857494E3,1.486526E2,8.8829645E2,2.3352321E2,5.140173E2,6.7429803E2,1.2195831E3,3.42065E1,3.6050827E2,9.8942764E1,4.7466254E0,1.1931815E2,1.3554614E3,2.663997E2,2.7816496E1,1.5657839E3,2.8019473E3,1.2653323E3,4.4684414E1,3.653521E2,1.3717754E2,3.2744278E2,7.8051646E3],"tree_param":{"num_deleted":"0","num_feature":"76","num_nodes":"57","size_leaf_vector":"1"}},{"base_weights":[3.10423E-4,-4.3970582E-1,1.9839214E-1,-6.7323124E-1,8.6861424E-2,-4.4047055E-1,2.6961333E-1,-8.3610606E-1,-1.2802671E-2,2.0590913E-1,-1.4642617E0,-5.054536E-1,1.2454396E0,3.596415E-1,-2.567086E-1,3.4173307E-1,-9.0956473E-1,5.29019E-1,-7.964189E-1,3.0150536E-1,-1.3201739E0,-6.310468E-2,5.925162E-2,-4.1625828E-1,-7.061686E-2,1.4733547E0,-7.76124E-2,2.38161E-1,6.064024E-1,-6.7311704E-1,6.440551E-1,-5.838371E-2,3.7475858E-2,-1.9102689E-2,-4.2706676E-2,4.554074E-2,-1.0232871E-2,-4.308687E-2,9.560925E-3,3.4369375E-3,3.350841E-2,-6.1489977E-2,1.148524E-2,-2.104264E-2,3.7702758E-2,1.5406845E-2,6.351425E-2,-2.2280037E-2,1.2253938E-2,-4.0826257E-2,2.6825916E-2,-3.3572126E-2,3.996188E-2,4.2767677E-2,-3.4312133E-2],"categories":[],"categories_nodes":[],"categories_segments":[],"categories_sizes":[],"default_left":[0,0,0,0,0,0,0,0,0,0,0,0,0,0,0,0,0,0,0,0,0,0,0,0,0,0,0,0,0,0,0,0,0,0,0,0,0,0,0,0,0,0,0,0,0,0,0,0,0,0,0,0,0,0,0],"id":10,"left_children":[1,3,5,7,9,11,13,15,17,19,21,23,25,27,29,31,33,35,37,39,41,-1,-1,43,-1,45,-1,47,49,51,53,-1,-1,-1,-1,-1,-1,-1,-1,-1,-1,-1,-1,-1,-1,-1,-1,-1,-1,-1,-1,-1,-1,-1,-1],"loss_changes":[2.3766086E3,1.0409117E3,8.556634E2,6.307683E2,4.8068094E2,2.0728513E2,8.0171423E2,4.0730786E2,4.9340356E2,3.529953E2,6.429178E1,2.0346677E2,5.3900444E1,4.3292664E2,9.275272E2,2.9820215E2,3.0192578E2,3.2895392E2,1.3835425E2,2.6293777E2,5.0216415E1,0E0,0E0,2.5388297E2,0E0,7.6334076E0,0E0,5.251643E2,4.9880872E2,4.7069E2,5.0015997E2,0E0,0E0,0E0,0E0,0E0,0E0,0E0,0E0,0E0,0E0,0E0,0E0,0E0,0E0,0E0,0E0,0E0,0E0,0E0,0E0,0E0,0E0,0E0,0E0],"parents":[2147483647,0,0,1,1,2,2,3,3,4,4,5,5,6,6,7,7,8,8,9,9,10,10,11,11,12,12,13,13,14,14,15,15,16,16,17,17,18,18,19,19,20,20,23,23,25,25,27,27,28,28,29,29,30,30],"right_children":[2,4,6,8,10,12,14,16,18,20,22,24,26,28,30,32,34,36,38,40,42,-1,-1,44,-1,46,-1,48,50,52,54,-1,-1,-1,-1,-1,-1,-1,-1,-1,-1,-1,-1,-1,-1,-1,-1,-1,-1,-1,-1,-1,-1,-1,-1],"split_conditions":[2.6998231E-2,1.176473E5,1.189889E3,4.66901E3,3.449792E-2,1.186415E5,3.2291522E-3,1.8755646E-2,-2.0796244E-3,2.6472764E-2,1.234947E5,1.1501795E5,1.217933E5,3.300804E8,1.09195305E5,1.1322687E5,-6.626934E-3,1.7504732E12,3.182982E-2,1.3093359E-2,1.19429E5,-6.310468E-2,5.925162E-2,1.119224E5,-7.061686E-2,1.2E1,-7.76124E-2,1.9487115E-2,-7.439159E-2,3.4885254E-2,3.032834E-2,-5.838371E-2,3.7475858E-2,-1.9102689E-2,-4.2706676E-2,4.554074E-2,-1.0232871E-2,-4.308687E-2,9.560925E-3,3.4369375E-3,3.350841E-2,-6.1489977E-2,1.148524E-2,-2.104264E-2,3.7702758E-2,1.5406845E-2,6.351425E-2,-2.2280037E-2,1.2253938E-2,-4.0826257E-2,2.6825916E-2,-3.3572126E-2,3.996188E-2,4.2767677E-2,-3.4312133E-2],"split_indices":[70,20,14,14,66,12,67,70,65,70,2,20,11,29,20,19,65,0,65,65,19,0,0,10,0,38,0,71,66,70,71,0,0,0,0,0,0,0,0,0,0,0,0,0,0,0,0,0,0,0,0,0,0,0,0],"split_type":[0,0,0,0,0,0,0,0,0,0,0,0,0,0,0,0,0,0,0,0,0,0,0,0,0,0,0,0,0,0,0,0,0,0,0,0,0,0,0,0,0,0,0,0,0,0,0,0,0,0,0,0,0,0,0],"sum_hessian":[2.7265453E4,8.463506E3,1.8801947E4,5.8630464E3,2.60046E3,1.8853092E3,1.6916637E4,4.7029414E3,1.160105E3,2.4159077E3,1.8455214E2,1.8160117E3,6.9297554E1,1.4445952E4,2.4706853E3,2.7587646E2,4.427065E3,6.8606134E2,4.7404364E2,2.2742478E3,1.4166E2,1.781603E2,6.3918443E0,1.6971947E3,1.1881695E2,6.517249E1,4.1250567E0,9.681641E3,4.764311E3,1.6897802E3,7.809052E2,6.815267E1,2.0772379E2,1.1871963E3,3.2398687E3,3.8591385E2,3.0014746E2,3.7289536E2,1.0114828E2,1.6229135E3,6.513343E2,1.24842865E2,1.681714E1,1.570865E3,1.2632977E2,6.6202097E0,5.8552284E1,7.6409155E2,8.91755E3,1.8041069E2,4.5839004E3,1.5374778E3,1.5230237E2,6.0884515E2,1.7206004E2],"tree_param":{"num_deleted":"0","num_feature":"76","num_nodes":"55","size_leaf_vector":"1"}},{"base_weights":[1.9869579E-3,-3.3958328E-1,2.3777771E-1,-4.990284E-1,2.2874898E-1,-2.9240853E-1,3.1389448E-1,-1.3586928E0,-4.0959433E-1,3.529712E-1,-1.4132869E0,2.6043096E-1,-4.672456E-1,4.2908E-1,-6.0348667E-2,1.1004289E0,-1.4339012E0,-1.9201676E-3,-5.955785E-1,8.271809E-1,1.5610261E-1,-6.1330374E-2,5.8659572E-2,4.85645E-1,-6.6304535E-2,-6.822182E-2,-3.675272E-1,5.7051957E-1,2.1253577E-1,-1.6641207E0,4.2297114E-2,6.141261E-2,-4.8779987E-2,-2.7340151E-2,-6.294129E-2,-2.6032457E-2,1.3227818E-2,3.738594E-2,-2.6707236E-2,4.0873494E-2,-9.930024E-3,-2.1244368E-2,2.4645725E-2,-6.7747556E-2,2.6842684E-2,4.7146413E-2,-1.79191E-2,2.0443197E-2,4.7431212E-2,-2.7975077E-2,1.5069448E-2,-7.630094E-2,-1.8958496E-2,1.1315832E-2,-2.4943268E-2],"categories":[],"categories_nodes":[],"categories_segments":[],"categories_sizes":[],"default_left":[0,0,0,0,0,0,0,0,0,0,0,0,0,0,0,0,0,0,0,0,0,0,0,0,0,0,0,0,0,0,0,0,0,0,0,0,0,0,0,0,0,0,0,0,0,0,0,0,0,0,0,0,0,0,0],"id":11,"left_children":[1,3,5,7,9,11,13,15,17,19,21,23,25,27,29,31,33,35,37,39,41,-1,-1,43,-1,-1,45,47,49,51,53,-1,-1,-1,-1,-1,-1,-1,-1,-1,-1,-1,-1,-1,-1,-1,-1,-1,-1,-1,-1,-1,-1,-1,-1],"loss_changes":[2.18827E3,1.00562573E3,6.48779E2,6.6567505E2,4.9650922E2,1.9522342E2,6.0596924E2,1.5251697E2,5.952208E2,2.1099496E2,6.1404816E1,2.1057938E2,1.8877829E2,3.2908423E2,5.448082E2,2.6877958E1,8.194458E1,5.312476E2,5.954254E2,1.3908682E2,5.059304E2,0E0,0E0,1.7706657E2,0E0,0E0,1.7726772E2,2.371482E2,6.363961E2,5.6765076E1,4.9858527E2,0E0,0E0,0E0,0E0,0E0,0E0,0E0,0E0,0E0,0E0,0E0,0E0,0E0,0E0,0E0,0E0,0E0,0E0,0E0,0E0,0E0,0E0,0E0,0E0],"parents":[2147483647,0,0,1,1,2,2,3,3,4,4,5,5,6,6,7,7,8,8,9,9,10,10,11,11,12,12,13,13,14,14,15,15,16,16,17,17,18,18,19,19,20,20,23,23,26,26,27,27,28,28,29,29,30,30],"right_children":[2,4,6,8,10,12,14,16,18,20,22,24,26,28,30,32,34,36,38,40,42,-1,-1,44,-1,-1,46,48,50,52,54,-1,-1,-1,-1,-1,-1,-1,-1,-1,-1,-1,-1,-1,-1,-1,-1,-1,-1,-1,-1,-1,-1,-1,-1],"split_conditions":[2.8442979E-2,1.1816374E5,1.345578E3,8.39186E2,3.449792E-2,1.7440166E12,5.631061E-4,9.579E4,-6.1853084E-4,-4.554393E-3,1.234947E5,6.1830312E-2,8.506768E4,1E0,8.43961E4,1.7464479E12,-2.327556E-3,-2.0232255E-2,6.873218E-3,1.2145134E5,1.1975902E5,-6.1330374E-2,5.8659572E-2,1.058195E-2,-6.6304535E-2,-6.822182E-2,8.68003E4,-1.2365391E-4,3.538046E-2,2.0171418E-3,3.717818E-2,6.141261E-2,-4.8779987E-2,-2.7340151E-2,-6.294129E-2,-2.6032457E-2,1.3227818E-2,3.738594E-2,-2.6707236E-2,4.0873494E-2,-9.930024E-3,-2.1244368E-2,2.4645725E-2,-6.7747556E-2,2.6842684E-2,4.7146413E-2,-1.79191E-2,2.0443197E-2,4.7431212E-2,-2.7975077E-2,1.5069448E-2,-7.630094E-2,-1.8958496E-2,1.1315832E-2,-2.4943268E-2],"split_indices":[70,19,14,14,66,0,67,6,67,66,2,70,20,25,8,0,33,66,71,20,19,0,0,71,0,0,11,67,70,67,71,0,0,0,0,0,0,0,0,0,0,0,0,0,0,0,0,0,0,0,0,0,0,0,0],"split_type":[0,0,0,0,0,0,0,0,0,0,0,0,0,0,0,0,0,0,0,0,0,0,0,0,0,0,0,0,0,0,0,0,0,0,0,0,0,0,0,0,0,0,0,0,0,0,0,0,0,0,0,0,0,0,0],"sum_hessian":[2.7168277E4,1.1095182E4,1.6073096E4,8.664488E3,2.430693E3,2.017499E3,1.4055597E4,8.151224E2,7.8493657E3,2.2604705E3,1.702226E2,4.8462198E2,1.5328771E3,1.0747543E4,3.308054E3,2.3784927E1,7.9133746E2,2.4594043E3,5.389962E3,6.621959E2,1.5982745E3,1.6386357E2,6.359032E0,4.3436612E2,5.025585E1,1.130405E2,1.4198365E3,6.500196E3,4.247347E3,1.980736E2,3.1099802E3,2.0314957E1,3.4699705E0,1.2507283E2,6.6626465E2,8.331251E2,1.626279E3,2.4200186E2,5.14796E3,5.607486E2,1.0144736E2,6.408355E2,9.574391E2,3.342113E1,4.00945E2,6.954721E1,1.3502894E3,5.9292124E3,5.7098315E2,6.47591E2,3.5997563E3,1.6394247E2,3.4131115E1,2.2849468E3,8.250334E2],"tree_param":{"num_deleted":"0","num_feature":"76","num_nodes":"55","size_leaf_vector":"1"}},{"base_weights":[9.527052E-3,-4.0403727E-1,1.9473948E-1,-6.1082786E-1,7.071779E-2,-3.4096885E-1,2.7190003E-1,-2.8416437E-1,-8.956103E-1,1.7944002E-1,-1.3722607E0,-4.0215167E-1,1.2834121E0,1.471773E-1,5.911952E-1,3.502183E-1,-6.443134E-1,9.412497E-2,-1.057767E0,2.710556E-1,-1.2305542E0,-6.042569E-2,5.8638465E-2,-3.1486523E-1,-6.843851E-2,1.4888066E0,-7.6224186E-2,4.470777E-1,-1.7163435E-2,6.55161E-2,7.814191E-1,-2.8107908E-2,3.1904995E-2,-6.4133324E-2,-1.2026025E-2,3.917235E-2,-3.0134503E-2,-3.0439243E-2,-5.4109506E-2,5.020152E-3,3.994294E-2,-6.509496E-2,1.5504378E-2,-1.6394544E-2,3.7648E-2,2.2765432E-2,6.2232736E-2,1.2602891E-2,4.022015E-2,-1.5686367E-2,1.4774884E-2,1.960223E-2,-6.406575E-2,-3.358585E-2,3.3750717E-2],"categories":[],"categories_nodes":[],"categories_segments":[],"categories_sizes":[],"default_left":[0,0,0,0,0,0,0,0,0,0,0,0,0,0,0,0,0,0,0,0,0,0,0,0,0,0,0,0,0,0,0,0,0,0,0,0,0,0,0,0,0,0,0,0,0,0,0,0,0,0,0,0,0,0,0],"id":12,"left_children":[1,3,5,7,9,11,13,15,17,19,21,23,25,27,29,31,33,35,37,39,41,-1,-1,43,-1,45,-1,47,49,51,53,-1,-1,-1,-1,-1,-1,-1,-1,-1,-1,-1,-1,-1,-1,-1,-1,-1,-1,-1,-1,-1,-1,-1,-1],"loss_changes":[2.0878762E3,8.277899E2,7.7829486E2,5.4612354E2,4.0172556E2,2.3612698E2,6.552765E2,6.255431E2,5.0361353E2,3.078618E2,7.268396E1,2.605505E2,5.935814E1,5.8332837E2,4.621637E2,4.6776877E2,5.7502045E2,3.3274658E2,2.3496411E2,2.3667314E2,9.401332E1,0E0,0E0,2.5618732E2,0E0,4.14534E0,0E0,3.0853333E2,1.1085258E3,8.708474E2,3.4374683E2,0E0,0E0,0E0,0E0,0E0,0E0,0E0,0E0,0E0,0E0,0E0,0E0,0E0,0E0,0E0,0E0,0E0,0E0,0E0,0E0,0E0,0E0,0E0,0E0],"parents":[2147483647,0,0,1,1,2,2,3,3,4,4,5,5,6,6,7,7,8,8,9,9,10,10,11,11,12,12,13,13,14,14,15,15,16,16,17,17,18,18,19,19,20,20,23,23,25,25,27,27,28,28,29,29,30,30],"right_children":[2,4,6,8,10,12,14,16,18,20,22,24,26,28,30,32,34,36,38,40,42,-1,-1,44,-1,46,-1,48,50,52,54,-1,-1,-1,-1,-1,-1,-1,-1,-1,-1,-1,-1,-1,-1,-1,-1,-1,-1,-1,-1,-1,-1,-1,-1],"split_conditions":[2.6998231E-2,1.176473E5,1.309525E3,-2.0796244E-3,3.449792E-2,1.186415E5,3.300804E8,1.7504732E12,2.0117866E-2,2.6472764E-2,1.234947E5,1.1501795E5,1.217933E5,1.7442975E12,9.121865E4,1.03616234E5,1.122362E5,1.1535176E5,1.2455692E-3,1.62675E-2,1.195036E5,-6.042569E-2,5.8638465E-2,1.119224E5,-6.843851E-2,9E0,-7.6224186E-2,1.743923E12,1.079948E5,8.89854E4,-4.500679E-2,-2.8107908E-2,3.1904995E-2,-6.4133324E-2,-1.2026025E-2,3.917235E-2,-3.0134503E-2,-3.0439243E-2,-5.4109506E-2,5.020152E-3,3.994294E-2,-6.509496E-2,1.5504378E-2,-1.6394544E-2,3.7648E-2,2.2765432E-2,6.2232736E-2,1.2602891E-2,4.022015E-2,-1.5686367E-2,1.4774884E-2,1.960223E-2,-6.406575E-2,-3.358585E-2,3.3750717E-2],"split_indices":[70,20,14,65,66,12,29,0,70,70,2,20,11,0,19,20,3,18,67,65,3,0,0,10,0,38,0,0,3,3,65,0,0,0,0,0,0,0,0,0,0,0,0,0,0,0,0,0,0,0,0,0,0,0,0],"split_type":[0,0,0,0,0,0,0,0,0,0,0,0,0,0,0,0,0,0,0,0,0,0,0,0,0,0,0,0,0,0,0,0,0,0,0,0,0,0,0,0,0,0,0,0,0,0,0,0,0,0,0,0,0,0,0],"sum_hessian":[2.7255816E4,8.430349E3,1.8825467E4,5.872262E3,2.5580867E3,2.3697063E3,1.645576E4,2.735951E3,3.1363113E3,2.3796648E3,1.7842189E2,2.2844155E3,8.529084E1,1.1834459E4,4.621302E3,9.9077783E2,1.7451731E3,4.4157083E2,2.6947405E3,2.235236E3,1.4442863E2,1.7057309E2,7.848789E0,2.142753E3,1.4166264E2,8.0630806E1,4.660031E0,4.188773E3,7.6456855E3,1.2282917E3,3.3930103E3,2.9528668E2,6.9549115E2,4.5942993E2,1.2857432E3,2.159059E2,2.2566493E2,1.3450216E3,1.3497189E3,1.8635709E3,3.7166525E2,1.1598108E2,2.8447563E1,1.9927141E3,1.5003874E2,6.120883E0,7.4509926E1,3.3891755E3,7.995974E2,3.8807644E3,3.7649211E3,9.7955554E2,2.4873622E2,1.2520573E2,3.2678044E3],"tree_param":{"num_deleted":"0","num_feature":"76","num_nodes":"55","size_leaf_vector":"1"}},{"base_weights":[1.2418869E-2,-3.8284636E-1,1.4968596E-1,-9.44845E-1,-2.6657715E-1,1.5582067E-2,4.6569952E-1,8.201193E-3,-1.2455099E0,9.705131E-2,-4.131172E-1,4.2562985E-1,-1.434492E-1,-9.0569574E-1,5.126416E-1,6.104466E-1,-1.1854559E0,-2.7576345E-1,-1.344479E0,9.540139E-1,-4.0980236E-4,4.3685496E-1,-5.093172E-1,3.0767164E-1,9.328564E-1,-2.1692255E-1,4.7676232E-1,-1.3455651E0,4.327391E-1,7.4047446E-1,2.9650745E-1,3.9882574E-2,-4.967208E-2,2.3568563E-2,-5.6166098E-2,-3.2537002E-2,4.842418E-2,-5.7235874E-2,-1.823214E-2,-6.138232E-2,5.227517E-2,4.160682E-3,-4.583163E-2,-1.57475E-3,5.150741E-2,-3.9448943E-2,-1.1040151E-2,2.675429E-2,3.3400904E-3,4.1240998E-2,-1.1160588E-2,4.1193822E-3,-1.5912166E-2,3.594485E-2,2.470402E-3,-5.8039445E-2,2.7606172E-2,6.951244E-2,-1.2747912E-2,3.0960957E-2,-6.916928E-2,-4.913305E-2,1.5684536E-2],"categories":[],"categories_nodes":[],"categories_segments":[],"categories_sizes":[],"default_left":[0,0,0,0,0,0,0,0,0,0,0,0,0,0,0,0,0,0,0,0,0,0,0,0,0,0,0,0,0,0,0,0,0,0,0,0,0,0,0,0,0,0,0,0,0,0,0,0,0,0,0,0,0,0,0,0,0,0,0,0,0,0,0],"id":13,"left_children":[1,3,5,7,9,11,13,15,17,19,21,23,25,27,29,31,33,35,37,39,41,43,45,47,49,51,53,55,57,59,61,-1,-1,-1,-1,-1,-1,-1,-1,-1,-1,-1,-1,-1,-1,-1,-1,-1,-1,-1,-1,-1,-1,-1,-1,-1,-1,-1,-1,-1,-1,-1,-1],"loss_changes":[1.4727786E3,4.569452E2,8.5382153E2,3.4358484E2,3.0903833E2,9.225311E2,3.868861E2,2.081485E2,8.710803E1,1.391842E2,3.381986E2,2.3625214E2,4.6461734E2,1.17755905E2,2.856101E2,1.3904727E2,3.8513443E1,6.9445595E1,6.2844482E1,1.5143834E2,1.7920796E2,1.7054933E2,4.1293433E2,2.5976575E2,8.896954E1,5.2746216E2,1.8902208E2,3.320102E1,4.957435E1,2.354209E2,4.3497568E2,0E0,0E0,0E0,0E0,0E0,0E0,0E0,0E0,0E0,0E0,0E0,0E0,0E0,0E0,0E0,0E0,0E0,0E0,0E0,0E0,0E0,0E0,0E0,0E0,0E0,0E0,0E0,0E0,0E0,0E0,0E0,0E0],"parents":[2147483647,0,0,1,1,2,2,3,3,4,4,5,5,6,6,7,7,8,8,9,9,10,10,11,11,12,12,13,13,14,14,15,15,16,16,17,17,18,18,19,19,20,20,21,21,22,22,23,23,24,24,25,25,26,26,27,27,28,28,29,29,30,30],"right_children":[2,4,6,8,10,12,14,16,18,20,22,24,26,28,30,32,34,36,38,40,42,44,46,48,50,52,54,56,58,60,62,-1,-1,-1,-1,-1,-1,-1,-1,-1,-1,-1,-1,-1,-1,-1,-1,-1,-1,-1,-1,-1,-1,-1,-1,-1,-1,-1,-1,-1,-1,-1,-1],"split_conditions":[5.3315616E-4,8.39186E2,1.7603841E12,1.7481327E12,-6.626934E-3,1.7442975E12,-7.439159E-2,8.8660634E-1,-3.083548E-3,1.8795673E-2,1.7442975E12,1.743923E12,1.19429E5,1.0194632E5,-1.051289E-2,1.2729788E-2,-1.7189901E-4,1.175368E5,1.7620698E12,9.4613336E4,-9.989303E-3,8.69509E4,1.079948E5,1.7418616E12,1.4413955E4,-6.5849456E-3,1.755245E12,3.2E1,1.7623509E12,1.7649702E12,-6.5996647E-3,3.9882574E-2,-4.967208E-2,2.3568563E-2,-5.6166098E-2,-3.2537002E-2,4.842418E-2,-5.7235874E-2,-1.823214E-2,-6.138232E-2,5.227517E-2,4.160682E-3,-4.583163E-2,-1.57475E-3,5.150741E-2,-3.9448943E-2,-1.1040151E-2,2.675429E-2,3.3400904E-3,4.1240998E-2,-1.1160588E-2,4.1193822E-3,-1.5912166E-2,3.594485E-2,2.470402E-3,-5.8039445E-2,2.7606172E-2,6.951244E-2,-1.2747912E-2,3.0960957E-2,-6.916928E-2,-4.913305E-2,1.5684536E-2],"split_indices":[55,14,0,0,65,0,66,46,33,71,0,0,19,20,65,66,32,1,0,18,65,19,3,0,14,65,0,37,0,0,65,0,0,0,0,0,0,0,0,0,0,0,0,0,0,0,0,0,0,0,0,0,0,0,0,0,0,0,0,0,0,0,0],"split_type":[0,0,0,0,0,0,0,0,0,0,0,0,0,0,0,0,0,0,0,0,0,0,0,0,0,0,0,0,0,0,0,0,0,0,0,0,0,0,0,0,0,0,0,0,0,0,0,0,0,0,0,0,0,0,0,0,0,0,0,0,0,0,0],"sum_hessian":[2.7142479E4,6.9958633E3,2.0146615E4,1.1980149E3,5.7978486E3,1.4145053E4,6.001562E3,2.875411E2,9.104738E2,1.6654625E3,4.132386E3,3.9524197E3,1.0192634E4,1.980256E2,5.8035366E3,1.9144061E2,9.610048E1,8.46657E1,8.258081E2,1.691715E2,1.496291E3,4.1979147E2,3.7125945E3,3.207991E3,7.4442865E2,9.113637E3,1.0789966E3,1.4903932E2,4.8986282E1,2.8241248E3,2.9794119E3,1.5876373E2,3.2676884E1,1.0357519E1,8.574296E1,6.2507652E1,2.2158052E1,7.5206464E2,7.374347E1,2.0592773E1,1.4857872E2,1.3721027E3,1.24188385E2,2.697575E2,1.5003398E2,1.21856E3,2.4940344E3,1.2277825E3,1.9802085E3,6.8878253E2,5.5646095E1,3.2919414E3,5.821696E3,5.345001E2,5.444965E2,1.4197432E2,7.064998E0,1.741968E1,3.15666E1,2.7869521E3,3.7172478E1,1.7508632E2,2.8043254E3],"tree_param":{"num_deleted":"0","num_feature":"76","num_nodes":"63","size_leaf_vector":"1"}},{"base_weights":[-1.6173347E-3,-2.3316371E-1,2.9138613E-1,-6.5156287E-1,-8.606926E-2,-7.1405105E-2,3.1053677E-1,7.160456E-1,-7.2272867E-1,-3.409232E-4,-8.148153E-1,5.138266E-1,1.4864789E-1,1.431269E0,-6.58354E-2,-1.7435776E-1,-9.075353E-1,-1.0676507E0,6.506393E-2,-1.675278E0,-4.180742E-1,5.686662E-1,-5.4405946E-1,-1.2339486E0,2.0575091E-1,-2.8184995E-2,7.359984E-2,-1.8406838E-2,4.8660953E-2,-3.7941266E-2,3.4029197E-2,-5.950271E-2,-2.0113058E-2,1.8483382E-2,-4.852628E-3,-3.6746386E-2,-6.8344474E-2,4.928811E-2,-4.226341E-2,1.8023917E-2,3.9343383E-2,-5.6389682E-2,2.9497107E-2,-7.091079E-2,8.88268E-3,4.5547066E-3,3.5162292E-2],"categories":[],"categories_nodes":[],"categories_segments":[],"categories_sizes":[],"default_left":[0,0,0,0,0,0,0,0,0,0,0,0,0,0,0,0,0,0,0,0,0,0,0,0,0,0,0,0,0,0,0,0,0,0,0,0,0,0,0,0,0,0,0,0,0,0,0],"id":14,"left_children":[1,3,5,7,9,-1,11,13,15,17,19,21,23,25,-1,27,29,31,33,35,37,39,41,43,45,-1,-1,-1,-1,-1,-1,-1,-1,-1,-1,-1,-1,-1,-1,-1,-1,-1,-1,-1,-1,-1,-1],"loss_changes":[1.8372681E3,9.3091205E2,4.75924E2,3.8345898E2,6.992877E2,0E0,3.8976697E2,3.3197034E2,3.7891077E2,6.992642E2,4.0149927E2,3.049364E2,5.2098676E2,1.3250943E2,0E0,3.7585852E2,2.0245068E2,1.3643707E2,6.984854E2,7.79895E0,8.523835E2,2.4413892E2,2.8869406E2,2.0574408E2,3.9181488E2,0E0,0E0,0E0,0E0,0E0,0E0,0E0,0E0,0E0,0E0,0E0,0E0,0E0,0E0,0E0,0E0,0E0,0E0,0E0,0E0,0E0,0E0],"parents":[2147483647,0,0,1,1,2,2,3,3,4,4,6,6,7,7,8,8,9,9,10,10,11,11,12,12,13,13,15,15,16,16,17,17,18,18,19,19,20,20,21,21,22,22,23,23,24,24],"right_children":[2,4,6,8,10,-1,12,14,16,18,20,22,24,26,-1,28,30,32,34,36,38,40,42,44,46,-1,-1,-1,-1,-1,-1,-1,-1,-1,-1,-1,-1,-1,-1,-1,-1,-1,-1,-1,-1,-1,-1],"split_conditions":[3.358463E-2,1.548245E3,1.058195E-2,1.8755646E-2,3.449792E-2,-7.1405105E-2,-2.204609E-2,1.1535176E5,-9.989303E-3,-2.0362929E-2,1.075632E5,1.7637542E12,-1.497748E-2,1.131643E5,-6.58354E-2,1.1858206E5,9.593468E-3,-2.4984846E-2,-6.5849456E-3,1.9350709E-1,1.7480391E12,3.5568714E8,8.70613E4,4.225159E3,1.7645028E12,-2.8184995E-2,7.359984E-2,-1.8406838E-2,4.8660953E-2,-3.7941266E-2,3.4029197E-2,-5.950271E-2,-2.0113058E-2,1.8483382E-2,-4.852628E-3,-3.6746386E-2,-6.8344474E-2,4.928811E-2,-4.226341E-2,1.8023917E-2,3.9343383E-2,-5.6389682E-2,2.9497107E-2,-7.091079E-2,8.88268E-3,4.5547066E-3,3.5162292E-2],"split_indices":[70,14,71,70,66,0,66,18,65,65,7,0,66,3,0,19,33,66,65,62,0,29,3,14,0,0,0,0,0,0,0,0,0,0,0,0,0,0,0,0,0,0,0,0,0,0,0],"split_type":[0,0,0,0,0,0,0,0,0,0,0,0,0,0,0,0,0,0,0,0,0,0,0,0,0,0,0,0,0,0,0,0,0,0,0,0,0,0,0,0,0,0,0,0,0,0,0],"sum_hessian":[2.7078818E4,1.5125821E4,1.1952997E4,3.9335898E3,1.1192231E4,1.0838645E2,1.184461E4,1.941181E2,3.7394717E3,1.0015076E4,1.1771548E3,5.249919E3,6.594692E3,1.4930165E2,4.481646E1,9.430708E2,2.796401E3,5.7740265E2,9.437674E3,3.704627E2,8.066921E2,4.9916216E3,2.5829742E2,2.607489E2,6.333943E3,2.386513E1,1.25436516E2,7.828679E2,1.6020291E2,2.7331348E3,6.3266224E1,3.302474E2,2.4715524E2,3.0145933E3,6.4230806E3,1.6837677E1,3.5362503E2,2.2478629E2,5.8190576E2,3.8874915E3,1.10413E3,1.5409894E2,1.04198494E2,1.9015977E2,7.058912E1,5.5743975E3,7.595451E2],"tree_param":{"num_deleted":"0","num_feature":"76","num_nodes":"47","size_leaf_vector":"1"}},{"base_weights":[-3.0611395E-3,-1.4248367E-1,3.604753E-1,3.7110704E-1,-2.990608E-1,-1.174488E0,4.176391E-1,3.998513E-1,-1.6023219E0,-6.1175376E-1,-1.6537248E-1,-1.3778746E0,2.524909E-1,6.9717455E-1,1.5878873E-1,-7.031466E-2,4.269145E-1,-7.962859E-2,-6.561864E-1,9.4114923E-1,-6.5447634E-1,-1.2190698E0,-1.09144874E-1,-1.7599785E0,-6.36949E-1,-6.609547E-2,1.4036763E0,7.3805654E-1,-6.606697E-2,2.4425958E-1,-1.3912129E0,4.5505166E-2,1.4338472E-2,4.353696E-2,-7.481803E-2,-6.661844E-2,4.8387554E-2,-6.315728E-3,-3.0238492E-2,-6.2559895E-2,-2.2585275E-2,1.2019381E-2,-1.0656601E-2,-3.9115954E-2,-7.6351926E-2,-7.312551E-2,9.433614E-3,7.057785E-2,-9.008777E-3,3.6215745E-2,2.178084E-2,-4.8907045E-2,1.3390183E-2,-7.067177E-2,2.3560256E-2],"categories":[],"categories_nodes":[],"categories_segments":[],"categories_sizes":[],"default_left":[0,0,0,0,0,0,0,0,0,0,0,0,0,0,0,0,0,0,0,0,0,0,0,0,0,0,0,0,0,0,0,0,0,0,0,0,0,0,0,0,0,0,0,0,0,0,0,0,0,0,0,0,0,0,0],"id":15,"left_children":[1,3,5,7,9,11,13,15,17,19,21,23,25,27,29,-1,31,-1,33,35,37,39,41,43,45,-1,47,49,-1,51,53,-1,-1,-1,-1,-1,-1,-1,-1,-1,-1,-1,-1,-1,-1,-1,-1,-1,-1,-1,-1,-1,-1,-1,-1],"loss_changes":[1.3661924E3,1.5668314E3,6.561081E2,2.5887018E2,6.240751E2,7.828409E1,5.211824E2,2.6281305E2,2.2783478E1,2.9726892E2,6.1963635E2,6.546362E1,7.763237E1,3.3380322E2,4.960639E2,0E0,2.1525848E2,0E0,4.561278E1,8.610453E1,2.1922058E2,1.18718445E2,6.3992163E2,1.6127136E1,8.525566E1,0E0,1.3295277E1,1.09777954E2,0E0,4.712984E2,1.4659106E2,0E0,0E0,0E0,0E0,0E0,0E0,0E0,0E0,0E0,0E0,0E0,0E0,0E0,0E0,0E0,0E0,0E0,0E0,0E0,0E0,0E0,0E0,0E0,0E0],"parents":[2147483647,0,0,1,1,2,2,3,3,4,4,5,5,6,6,7,7,8,8,9,9,10,10,11,11,12,12,13,13,14,14,16,16,18,18,19,19,20,20,21,21,22,22,23,23,24,24,26,26,27,27,29,29,30,30],"right_children":[2,4,6,8,10,12,14,16,18,20,22,24,26,28,30,-1,32,-1,34,36,38,40,42,44,46,-1,48,50,-1,52,54,-1,-1,-1,-1,-1,-1,-1,-1,-1,-1,-1,-1,-1,-1,-1,-1,-1,-1,-1,-1,-1,-1,-1,-1],"split_conditions":[2.8860006E8,1.7442975E12,-7.439159E-2,2.0818124E-3,3.54659E2,3.562127E8,-1.051289E-2,1.058195E-2,1.3E1,-3.818093E-2,-2.0990815E-2,-7.818639E-2,6.7147225E-1,1.7649702E12,3.8836684E-2,-7.031466E-2,1.9793088E-2,-7.962859E-2,1.7428911E12,1.08623984E5,-1.6279971E-3,-8.010881E-3,-6.5849456E-3,8.42594E4,1.0194632E5,-6.609547E-2,2.32214E-2,4.8628174E-2,-6.606697E-2,-6.5996647E-3,1.1558E5,4.5505166E-2,1.4338472E-2,4.353696E-2,-7.481803E-2,-6.661844E-2,4.8387554E-2,-6.315728E-3,-3.0238492E-2,-6.2559895E-2,-2.2585275E-2,1.2019381E-2,-1.0656601E-2,-3.9115954E-2,-7.6351926E-2,-7.312551E-2,9.433614E-3,7.057785E-2,-9.008777E-3,3.6215745E-2,2.178084E-2,-4.8907045E-2,1.3390183E-2,-7.067177E-2,2.3560256E-2],"split_indices":[29,0,66,67,9,29,65,71,37,65,65,66,34,0,66,0,71,0,0,19,67,66,65,10,20,0,35,71,0,65,11,0,0,0,0,0,0,0,0,0,0,0,0,0,0,0,0,0,0,0,0,0,0,0,0],"split_type":[0,0,0,0,0,0,0,0,0,0,0,0,0,0,0,0,0,0,0,0,0,0,0,0,0,0,0,0,0,0,0,0,0,0,0,0,0,0,0,0,0,0,0,0,0,0,0,0,0,0,0,0,0,0,0],"sum_hessian":[2.6952467E4,1.9481559E4,7.470907E3,4.5513257E3,1.4930233E4,2.67534E2,7.2033735E3,4.4867705E3,6.4555305E1,4.4704375E3,1.0459795E4,2.341895E2,3.334451E1,3.4624934E3,3.74088E3,5.4786125E1,4.4319844E3,4.4984795E1,1.9570507E1,1.1913209E2,4.3513057E3,5.2883435E2,9.930961E3,1.5360054E2,8.058895E1,1.2396508E1,2.0948002E1,3.4039333E3,5.8560078E1,3.5461775E3,1.947024E2,3.8799396E2,4.0439905E3,8.073883E0,1.1496624E1,1.0641102E1,1.0849098E2,7.388039E2,3.6125017E3,3.4539877E2,1.8343556E2,2.75481E3,7.176151E3,2.5765923E1,1.2783462E2,3.3615585E1,4.697337E1,1.7081543E1,3.8664591E0,1.8235527E3,1.5803807E3,2.0532483E2,3.3408525E3,1.6375192E2,3.095048E1],"tree_param":{"num_deleted":"0","num_feature":"76","num_nodes":"55","size_leaf_vector":"1"}},{"base_weights":[4.880222E-3,-3.9929834E-1,1.3095273E-1,3.9929982E-2,-5.6387675E-1,3.308471E-1,-7.794819E-2,2.3555245E-1,-1.6881486E0,-9.023673E-1,-2.694236E-1,2.6239234E-1,7.5273216E-1,-1.526802E-1,5.8872354E-1,9.405774E-1,-1.2055119E-1,-1.7242457E0,-2.1835152E-2,-1.0569317E0,3.0932546E-1,7.424981E-1,-5.0218785E-1,-2.3328383E-2,4.3164608E-1,7.863413E-1,-9.16367E-2,4.7970742E-1,-2.439808E-1,1.0889442E0,1.2185962E-1,1.5978983E-2,4.6472292E-2,-1.4301362E-2,5.6829154E-2,-6.377499E-2,-8.050969E-2,-1.171517E-2,-5.1018998E-2,6.3355856E-2,-4.95721E-3,-6.402138E-2,3.5432097E-2,-4.582698E-2,-1.2343229E-2,3.1626843E-2,-6.2557254E-3,1.8647816E-2,-5.4896615E-2,1.832549E-2,4.4501994E-2,2.2473738E-2,-7.3301174E-2,9.457493E-3,-1.7105252E-2,-3.8914647E-2,4.8768394E-2,-2.2780338E-2,3.098831E-2],"categories":[],"categories_nodes":[],"categories_segments":[],"categories_sizes":[],"default_left":[0,0,0,0,0,0,0,0,0,0,0,0,0,0,0,0,0,0,0,0,0,0,0,0,0,0,0,0,0,0,0,0,0,0,0,0,0,0,0,0,0,0,0,0,0,0,0,0,0,0,0,0,0,0,0,0,0,0,0],"id":16,"left_children":[1,3,5,7,9,11,13,15,17,19,21,23,25,27,29,31,33,35,-1,37,39,41,43,45,47,49,-1,51,53,55,57,-1,-1,-1,-1,-1,-1,-1,-1,-1,-1,-1,-1,-1,-1,-1,-1,-1,-1,-1,-1,-1,-1,-1,-1,-1,-1,-1,-1],"loss_changes":[1.3714608E3,4.6260803E2,8.56712E2,5.90352E2,4.6372705E2,3.0257812E2,4.9992792E2,3.9392273E2,6.3812256E0,4.058308E2,5.87079E2,4.362989E2,1.5146747E2,5.2102734E2,2.3607977E2,6.2563538E1,3.814943E2,3.2236023E0,0E0,3.203015E2,1.3588634E2,1.5795859E2,2.5201395E2,3.637498E2,3.5377722E2,1.5450177E2,0E0,2.1726297E2,6.9574335E2,1.3229834E2,2.3708945E2,0E0,0E0,0E0,0E0,0E0,0E0,0E0,0E0,0E0,0E0,0E0,0E0,0E0,0E0,0E0,0E0,0E0,0E0,0E0,0E0,0E0,0E0,0E0,0E0,0E0,0E0,0E0,0E0],"parents":[2147483647,0,0,1,1,2,2,3,3,4,4,5,5,6,6,7,7,8,8,9,9,10,10,11,11,12,12,13,13,14,14,15,15,16,16,17,17,19,19,20,20,21,21,22,22,23,23,24,24,25,25,27,27,28,28,29,29,30,30],"right_children":[2,4,6,8,10,12,14,16,18,20,22,24,26,28,30,32,34,36,-1,38,40,42,44,46,48,50,-1,52,54,56,58,-1,-1,-1,-1,-1,-1,-1,-1,-1,-1,-1,-1,-1,-1,-1,-1,-1,-1,-1,-1,-1,-1,-1,-1,-1,-1,-1,-1],"split_conditions":[1.610764E3,9.584319E4,-6.898659E-4,5.2030105E-2,2.2538445E8,-1.12769E-3,1.1993053E5,-5.7345433E-3,1E0,1.1824514E5,2.2816944E8,3.900403E-2,1.7647833E12,1.7445783E12,1.755245E12,8.57198E4,1.7645028E12,1.345578E3,-2.1835152E-2,8.983771E7,1.1845387E5,1.089136E5,7.96487E2,1.7423295E12,1.7641285E12,-6.2299854E-1,-9.16367E-2,5.4551627E-2,-6.5849456E-3,1.7804049E-2,2.8860006E8,1.5978983E-2,4.6472292E-2,-1.4301362E-2,5.6829154E-2,-6.377499E-2,-8.050969E-2,-1.171517E-2,-5.1018998E-2,6.3355856E-2,-4.95721E-3,-6.402138E-2,3.5432097E-2,-4.582698E-2,-1.2343229E-2,3.1626843E-2,-6.2557254E-3,1.8647816E-2,-5.4896615E-2,1.832549E-2,4.4501994E-2,2.2473738E-2,-7.3301174E-2,9.457493E-3,-1.7105252E-2,-3.8914647E-2,4.8768394E-2,-2.2780338E-2,3.098831E-2],"split_indices":[14,20,67,71,29,67,20,65,61,19,29,71,0,0,0,3,0,14,0,29,21,3,14,0,0,34,0,66,65,71,29,0,0,0,0,0,0,0,0,0,0,0,0,0,0,0,0,0,0,0,0,0,0,0,0,0,0,0,0],"split_type":[0,0,0,0,0,0,0,0,0,0,0,0,0,0,0,0,0,0,0,0,0,0,0,0,0,0,0,0,0,0,0,0,0,0,0,0,0,0,0,0,0,0,0,0,0,0,0,0,0,0,0,0,0,0,0,0,0,0,0],"sum_hessian":[2.6912684E4,6.3982456E3,2.0514438E4,1.7441637E3,4.6540815E3,1.0482907E4,1.0031531E4,1.5675743E3,1.7658932E2,2.1641753E3,2.4899065E3,9.020817E3,1.4620895E3,9.021066E3,1.010465E3,5.2551074E2,1.0420636E3,1.7068596E2,5.9033628E0,1.9194558E3,2.4471951E2,4.6521893E2,2.0246875E3,3.3561287E3,5.664689E3,1.4468544E3,1.5235075E1,1.1375621E3,7.8835044E3,4.8716275E2,5.233023E2,1.5331812E2,3.7219263E2,9.038571E2,1.3820648E2,1.2220159E2,4.8484364E1,4.274347E2,1.4920211E3,6.1408737E1,1.8331078E2,2.6227612E1,4.3899133E2,4.6714227E2,1.5575453E3,4.7084964E2,2.885279E3,5.558971E3,1.0571749E2,7.2241986E2,7.244346E2,1.0992705E3,3.8291634E1,2.1801313E3,5.703373E3,2.8565603E1,4.5859714E2,2.5421524E2,2.6908704E2],"tree_param":{"num_deleted":"0","num_feature":"76","num_nodes":"59","size_leaf_vector":"1"}},{"base_weights":[1.3071479E-3,-3.568623E-1,1.6129898E-1,-5.6273925E-1,5.757886E-2,-3.84001E-1,2.221035E-1,-9.821233E-1,-3.713972E-1,-1.5735203E0,1.444185E-1,-2.043056E-1,-9.381802E-1,1.1375891E-1,5.008281E-1,-1.1887327E0,-1.3166557E-1,-3.0054688E-1,-5.8564223E-2,-1.8813679E-1,-1.662516E0,5.86081E-1,-2.512752E-1,3.0136457E-1,-5.328151E-1,-1.3426044E0,-3.157501E-1,3.8608828E-1,-3.3054907E-2,-9.3241864E-1,5.572545E-1,-5.1658142E-2,1.304593E-2,2.5669366E-2,-4.4448033E-2,-1.6383836E-2,1.5773937E-2,5.689422E-2,-5.775391E-2,-6.823473E-2,2.768524E-3,4.5232065E-2,9.773416E-3,-3.0073635E-2,2.22263E-2,-6.1326332E-2,1.957162E-2,-4.1157607E-2,3.2706297E-4,3.1436577E-2,-6.426322E-2,3.256787E-2,-5.454691E-2,1.6610553E-2,-6.169761E-2,-1.625371E-2,1.3783507E-2,-5.9882376E-2,-1.4982917E-2,3.0223026E-3,2.926717E-2],"categories":[],"categories_nodes":[],"categories_segments":[],"categories_sizes":[],"default_left":[0,0,0,0,0,0,0,0,0,0,0,0,0,0,0,0,0,0,0,0,0,0,0,0,0,0,0,0,0,0,0,0,0,0,0,0,0,0,0,0,0,0,0,0,0,0,0,0,0,0,0,0,0,0,0,0,0,0,0,0,0],"id":17,"left_children":[1,3,5,7,9,11,13,15,17,19,21,23,25,27,29,31,33,35,-1,37,39,41,43,45,47,49,51,53,55,57,59,-1,-1,-1,-1,-1,-1,-1,-1,-1,-1,-1,-1,-1,-1,-1,-1,-1,-1,-1,-1,-1,-1,-1,-1,-1,-1,-1,-1,-1,-1],"loss_changes":[1.5338013E3,7.051902E2,6.135331E2,4.4272705E2,3.8887027E2,1.846788E2,5.0262482E2,3.0371155E2,2.9323517E2,1.6797821E1,4.555836E2,2.3324852E2,1.1393155E2,4.793108E2,3.7731506E2,2.1690796E2,2.576324E2,2.702037E2,0E0,2.1274845E1,9.898376E0,2.290264E2,5.5590955E2,1.9147375E2,2.2839914E2,1.558122E2,2.1451645E2,2.3690698E2,1.098267E3,5.5144913E1,3.7662634E2,0E0,0E0,0E0,0E0,0E0,0E0,0E0,0E0,0E0,0E0,0E0,0E0,0E0,0E0,0E0,0E0,0E0,0E0,0E0,0E0,0E0,0E0,0E0,0E0,0E0,0E0,0E0,0E0,0E0,0E0],"parents":[2147483647,0,0,1,1,2,2,3,3,4,4,5,5,6,6,7,7,8,8,9,9,10,10,11,11,12,12,13,13,14,14,15,15,16,16,17,17,19,19,20,20,21,21,22,22,23,23,24,24,25,25,26,26,27,27,28,28,29,29,30,30],"right_children":[2,4,6,8,10,12,14,16,18,20,22,24,26,28,30,32,34,36,-1,38,40,42,44,46,48,50,52,54,56,58,60,-1,-1,-1,-1,-1,-1,-1,-1,-1,-1,-1,-1,-1,-1,-1,-1,-1,-1,-1,-1,-1,-1,-1,-1,-1,-1,-1,-1,-1,-1],"split_conditions":[2.6998231E-2,3.473653E3,1.189889E3,1.1098501E5,-2.161816E-2,1.2729788E-2,3.300804E8,4.332202E-2,4.333879E-2,2.2927595E-4,-5.637595E-4,8.983771E7,1.0012962E-2,1.7442975E12,-7.439159E-2,1.0314745E-2,-6.626934E-3,1.1993053E5,-5.8564223E-2,-1.1756081E-4,1.166805E5,1.7504732E12,1.1975902E5,1.058195E-2,1.089136E5,-1.4538981E-2,4.0222697E-2,1.973613E-2,1.079948E5,1.1641116E0,9.121865E4,-5.1658142E-2,1.304593E-2,2.5669366E-2,-4.4448033E-2,-1.6383836E-2,1.5773937E-2,5.689422E-2,-5.775391E-2,-6.823473E-2,2.768524E-3,4.5232065E-2,9.773416E-3,-3.0073635E-2,2.22263E-2,-6.1326332E-2,1.957162E-2,-4.1157607E-2,3.2706297E-4,3.1436577E-2,-6.426322E-2,3.256787E-2,-5.454691E-2,1.6610553E-2,-6.169761E-2,-1.625371E-2,1.3783507E-2,-5.9882376E-2,-1.4982917E-2,3.0223026E-3,2.926717E-2],"split_indices":[70,14,14,20,66,66,29,68,66,54,65,29,65,0,66,33,65,20,0,56,7,0,19,71,3,65,71,68,3,46,19,0,0,0,0,0,0,0,0,0,0,0,0,0,0,0,0,0,0,0,0,0,0,0,0,0,0,0,0,0,0],"split_type":[0,0,0,0,0,0,0,0,0,0,0,0,0,0,0,0,0,0,0,0,0,0,0,0,0,0,0,0,0,0,0,0,0,0,0,0,0,0,0,0,0,0,0,0,0,0,0,0,0,0,0,0,0,0,0,0,0,0,0,0,0],"sum_hessian":[2.6763953E4,8.263483E3,1.8500469E4,5.520682E3,2.7428005E3,1.8554375E3,1.6645031E4,1.7283489E3,3.7923335E3,1.3777972E2,2.6050208E3,1.4021515E3,4.5328592E2,1.1986933E4,4.6580996E3,1.390214E3,3.3813498E2,3.5626116E3,2.2972183E2,8.504552E0,1.2927516E2,1.2307783E3,1.3742424E3,5.522158E2,8.499357E2,2.74059E2,1.7922694E2,4.198107E3,7.788825E3,1.758533E2,4.482246E3,1.3020708E3,8.8143166E1,1.891416E2,1.4899338E2,3.0797249E3,4.8288672E2,3.667784E0,4.836768E0,1.2613249E2,3.142672E0,4.735929E2,7.571855E2,8.481665E2,5.26076E2,5.0646736E1,5.015691E2,4.4288187E2,4.0705386E2,3.0020157E1,2.4403883E2,8.634572E1,9.2881226E1,4.136316E3,6.179116E1,3.9169585E3,3.8718667E3,8.6557655E1,8.929565E1,1.1919506E3,3.2902957E3],"tree_param":{"num_deleted":"0","num_feature":"76","num_nodes":"61","size_leaf_vector":"1"}},{"base_weights":[-3.5867684E-3,-4.4880256E-1,1.12072036E-1,-6.232452E-1,4.901648E-1,-3.728163E-1,1.8622655E-1,-2.9213467E-1,-1.08571E0,1.0748794E0,-3.0003613E-1,-4.6829352E-1,1.113814E0,2.641471E-1,-1.8539037E-1,-7.057982E-1,1.6771507E-1,-1.459426E0,-7.195258E-1,-7.163086E-1,1.2028776E0,-1.2312748E0,8.730785E-1,1.8437837E-1,-6.01172E-1,1.2673997E0,-1.1825087E0,2.4364315E-1,1.058429E0,2.3989539E-1,-5.030762E-1,8.112856E-3,-4.0741824E-2,4.5440014E-2,-7.89568E-3,-6.0441587E-2,5.260723E-3,-1.0354243E-2,-6.3175425E-2,-7.112921E-2,6.83363E-2,-8.081525E-2,4.9425658E-2,-5.502207E-2,3.533233E-2,5.636846E-2,-4.827789E-2,4.0515423E-2,-1.578506E-2,-3.475961E-2,-9.602517E-3,4.2711603E-3,5.4311242E-2,1.3974394E-2,-7.1816735E-2,6.044239E-3,1.8353952E-2,-7.256905E-2,4.736368E-2,1.7377479E-2,-6.0339153E-2,-2.6363952E-2,4.505846E-2],"categories":[],"categories_nodes":[],"categories_segments":[],"categories_sizes":[],"default_left":[0,0,0,0,0,0,0,0,0,0,0,0,0,0,0,0,0,0,0,0,0,0,0,0,0,0,0,0,0,0,0,0,0,0,0,0,0,0,0,0,0,0,0,0,0,0,0,0,0,0,0,0,0,0,0,0,0,0,0,0,0,0,0],"id":18,"left_children":[1,3,5,7,9,11,13,15,17,19,21,23,25,27,29,31,33,35,37,39,41,43,45,47,49,51,53,55,57,59,61,-1,-1,-1,-1,-1,-1,-1,-1,-1,-1,-1,-1,-1,-1,-1,-1,-1,-1,-1,-1,-1,-1,-1,-1,-1,-1,-1,-1,-1,-1,-1,-1],"loss_changes":[1.3806927E3,9.059624E2,7.653706E2,7.13766E2,4.0083868E2,4.0129562E2,5.346294E2,5.1733124E2,2.6516992E2,1.1513257E2,4.046535E2,2.3027008E2,6.169893E1,2.4829517E2,4.3254498E2,4.0701202E2,4.557153E2,7.917676E1,3.895837E2,9.024325E1,5.166107E1,6.417206E1,1.8466321E2,2.1611343E2,2.1305896E2,1.6688538E1,1.115989E1,2.9624036E2,1.4068152E2,4.663687E2,4.6661633E2,0E0,0E0,0E0,0E0,0E0,0E0,0E0,0E0,0E0,0E0,0E0,0E0,0E0,0E0,0E0,0E0,0E0,0E0,0E0,0E0,0E0,0E0,0E0,0E0,0E0,0E0,0E0,0E0,0E0,0E0,0E0,0E0],"parents":[2147483647,0,0,1,1,2,2,3,3,4,4,5,5,6,6,7,7,8,8,9,9,10,10,11,11,12,12,13,13,14,14,15,15,16,16,17,17,18,18,19,19,20,20,21,21,22,22,23,23,24,24,25,25,26,26,27,27,28,28,29,29,30,30],"right_children":[2,4,6,8,10,12,14,16,18,20,22,24,26,28,30,32,34,36,38,40,42,44,46,48,50,52,54,56,58,60,62,-1,-1,-1,-1,-1,-1,-1,-1,-1,-1,-1,-1,-1,-1,-1,-1,-1,-1,-1,-1,-1,-1,-1,-1,-1,-1,-1,-1,-1,-1,-1,-1],"split_conditions":[2.5385618E-2,1.20040055E5,1.309525E3,1.2455692E-3,1.755245E12,1.1816374E5,3.3360617E-3,1.1419978E5,2.7738877E-3,1.1936038E-2,1.2411411E5,1.7440166E12,6.011612E-3,2.80474E-3,2.5367137E-2,2.0117866E-2,-1.3704777E-2,7.1726937E0,2.6382424E-2,1.233242E5,1.186525E5,7.2945366E0,2.5434345E-2,3.9163686E-2,1.7566395E12,-2.4351976E0,1.7532699E12,1.761693E12,8.405E4,6.302705E-2,3.4885254E-2,8.112856E-3,-4.0741824E-2,4.5440014E-2,-7.89568E-3,-6.0441587E-2,5.260723E-3,-1.0354243E-2,-6.3175425E-2,-7.112921E-2,6.83363E-2,-8.081525E-2,4.9425658E-2,-5.502207E-2,3.533233E-2,5.636846E-2,-4.827789E-2,4.0515423E-2,-1.578506E-2,-3.475961E-2,-9.602517E-3,4.2711603E-3,5.4311242E-2,1.3974394E-2,-7.1816735E-2,6.044239E-3,1.8353952E-2,-7.256905E-2,4.736368E-2,1.7377479E-2,-6.0339153E-2,-2.6363952E-2,4.505846E-2],"split_indices":[70,19,14,67,0,19,67,18,67,65,21,0,33,67,71,70,66,46,66,3,3,51,71,70,0,50,0,0,3,66,70,0,0,0,0,0,0,0,0,0,0,0,0,0,0,0,0,0,0,0,0,0,0,0,0,0,0,0,0,0,0,0,0],"split_type":[0,0,0,0,0,0,0,0,0,0,0,0,0,0,0,0,0,0,0,0,0,0,0,0,0,0,0,0,0,0,0,0,0,0,0,0,0,0,0,0,0,0,0,0,0,0,0,0,0,0,0,0,0,0,0,0,0,0,0,0,0,0,0],"sum_hessian":[2.681117E4,5.528178E3,2.1282992E4,4.662339E3,8.6583936E2,2.8225588E3,1.8460434E4,2.7179807E3,1.944358E3,4.974141E2,3.6842526E2,2.6528665E3,1.6969246E2,1.5260834E4,3.1995996E3,1.4305642E3,1.2874165E3,9.608054E2,9.835526E2,3.2868E1,4.6454608E2,2.0535854E2,1.6306673E2,4.486756E2,2.2041907E3,1.5947437E2,1.0218101E1,1.4878071E4,3.8276285E2,1.3682156E3,1.831384E3,3.6640515E2,1.064159E3,3.519399E2,9.354766E2,9.306629E2,3.014255E1,6.412853E2,3.422674E2,2.3042845E1,9.825155E0,4.0640697E0,4.6048203E2,1.9256912E2,1.2789401E1,1.2990565E2,3.316108E1,1.8426236E2,2.6441324E2,1.2647649E3,9.394259E2,1.1679172E1,1.4779518E2,3.0428898E0,7.175211E0,1.0405479E4,4.472593E3,1.5478875E1,3.6728397E2,1.2318943E3,1.3632135E2,1.6719009E3,1.5948317E2],"tree_param":{"num_deleted":"0","num_feature":"76","num_nodes":"63","size_leaf_vector":"1"}},{"base_weights":[6.304369E-3,-3.623545E-1,1.19812824E-1,-1.14610866E-1,-5.682987E-1,1.4964369E-2,4.212929E-1,4.2523406E-2,-7.827304E-1,7.483441E-1,-6.9258595E-1,3.6808714E-1,-1.0517527E-1,-8.357332E-1,4.573136E-1,1.2185313E0,-4.2663645E-2,-2.8048265E-1,-1.5282247E0,-6.3949056E-2,9.19615E-1,4.2470887E-1,-7.7251595E-1,2.432255E-1,8.684211E-1,-1.7184426E-1,5.065146E-1,-1.2451066E0,2.1877816E-1,6.8259394E-1,2.3483373E-1,5.482735E-2,-7.63924E-2,-2.0658392E-2,8.611388E-3,-3.758788E-2,3.965172E-2,-6.6927515E-2,2.5597146E-2,4.3709025E-2,-3.8042706E-2,-4.5954183E-2,5.4488327E-2,-4.9648304E-3,-3.7052177E-2,-1.3599989E-2,1.6438114E-2,2.0623466E-2,4.4579234E-2,-3.9756102E-3,-3.3046175E-2,3.853919E-2,2.6475652E-3,-2.6271617E-2,-6.494925E-2,-2.615222E-2,4.4370864E-2,2.9829726E-2,-7.470472E-3,-4.5610897E-2,1.3097604E-2],"categories":[],"categories_nodes":[],"categories_segments":[],"categories_sizes":[],"default_left":[0,0,0,0,0,0,0,0,0,0,0,0,0,0,0,0,0,0,0,0,0,0,0,0,0,0,0,0,0,0,0,0,0,0,0,0,0,0,0,0,0,0,0,0,0,0,0,0,0,0,0,0,0,0,0,0,0,0,0,0,0],"id":19,"left_children":[1,3,5,7,9,11,13,15,17,19,21,23,25,27,29,31,33,35,37,-1,39,41,43,45,47,49,51,53,55,57,59,-1,-1,-1,-1,-1,-1,-1,-1,-1,-1,-1,-1,-1,-1,-1,-1,-1,-1,-1,-1,-1,-1,-1,-1,-1,-1,-1,-1,-1,-1],"loss_changes":[1.115105E3,3.200055E2,6.4402875E2,2.991235E2,5.6105164E2,6.414137E2,2.3843158E2,2.312085E2,2.0269669E2,1.20431625E2,2.798922E2,2.3956079E2,4.6014102E2,6.3648743E1,2.5603406E2,7.681726E1,2.6318015E2,2.7370142E2,6.9634674E1,0E0,9.056137E1,3.1083096E2,2.9123328E2,3.0074048E2,6.593945E1,4.8220236E2,2.230745E2,2.2523865E1,3.328733E1,1.3954382E2,3.2806677E2,0E0,0E0,0E0,0E0,0E0,0E0,0E0,0E0,0E0,0E0,0E0,0E0,0E0,0E0,0E0,0E0,0E0,0E0,0E0,0E0,0E0,0E0,0E0,0E0,0E0,0E0,0E0,0E0,0E0,0E0],"parents":[2147483647,0,0,1,1,2,2,3,3,4,4,5,5,6,6,7,7,8,8,9,9,10,10,11,11,12,12,13,13,14,14,15,15,16,16,17,17,18,18,20,20,21,21,22,22,23,23,24,24,25,25,26,26,27,27,28,28,29,29,30,30],"right_children":[2,4,6,8,10,12,14,16,18,20,22,24,26,28,30,32,34,36,38,-1,40,42,44,46,48,50,52,54,56,58,60,-1,-1,-1,-1,-1,-1,-1,-1,-1,-1,-1,-1,-1,-1,-1,-1,-1,-1,-1,-1,-1,-1,-1,-1,-1,-1,-1,-1,-1,-1],"split_conditions":[1.610764E3,-7.1339885E-4,1.7603841E12,4.6640486E-2,-1.4538981E-2,1.7442975E12,-7.439159E-2,1.7421423E12,-2.6740948E-2,3.0515708E-2,6.873218E-3,1.743923E12,1.1975902E5,1.0194632E5,-1.051289E-2,8.63161E4,2.0584986E-2,-1.5239098E-2,1.08112E5,-6.3949056E-2,5.671906E-3,8.08783E2,9.567845E4,8.281422E4,7.904467E4,2.257886E-2,1.755245E12,8.477E4,2.8970346E0,1.7637542E12,-6.5996647E-3,5.482735E-2,-7.63924E-2,-2.0658392E-2,8.611388E-3,-3.758788E-2,3.965172E-2,-6.6927515E-2,2.5597146E-2,4.3709025E-2,-3.8042706E-2,-4.5954183E-2,5.4488327E-2,-4.9648304E-3,-3.7052177E-2,-1.3599989E-2,1.6438114E-2,2.0623466E-2,4.4579234E-2,-3.9756102E-3,-3.3046175E-2,3.853919E-2,2.6475652E-3,-2.6271617E-2,-6.494925E-2,-2.615222E-2,4.4370864E-2,2.9829726E-2,-7.470472E-3,-4.5610897E-2,1.3097604E-2],"split_indices":[14,67,0,71,65,0,66,0,66,71,71,0,19,20,65,11,71,65,2,0,33,14,20,19,20,65,0,10,46,0,65,0,0,0,0,0,0,0,0,0,0,0,0,0,0,0,0,0,0,0,0,0,0,0,0,0,0,0,0,0,0],"split_type":[0,0,0,0,0,0,0,0,0,0,0,0,0,0,0,0,0,0,0,0,0,0,0,0,0,0,0,0,0,0,0,0,0,0,0,0,0,0,0,0,0,0,0,0,0,0,0,0,0,0,0,0,0,0,0,0,0,0,0,0,0],"sum_hessian":[2.6645855E4,6.272265E3,2.037359E4,2.8478994E3,3.4243655E3,1.5117196E4,5.2563945E3,2.306397E3,5.415025E2,2.9493512E2,3.1294304E3,3.8370396E3,1.1280156E4,1.458102E2,5.1105845E3,1.5488629E2,2.1515105E3,3.2435632E2,2.171462E2,1.949153E1,2.7544357E2,2.0864131E2,2.920789E3,3.0719102E3,7.6512933E2,1.0172193E4,1.1079634E3,1.04904366E2,4.0905823E1,2.538283E3,2.5723015E3,1.4823831E2,6.647987E0,7.580789E2,1.3934316E3,2.1379736E2,1.1055898E2,2.037516E2,1.33945875E1,2.5249397E2,2.2949608E1,7.781157E1,1.3082974E2,5.6029767E2,2.3604915E3,6.858903E2,2.3860198E3,3.1563037E2,4.4949896E2,9.159124E3,1.01306934E3,5.431254E2,5.64838E2,4.2148182E1,6.2756184E1,2.0794926E1,2.0110899E1,2.366523E3,1.7175993E2,1.6158737E2,2.410714E3],"tree_param":{"num_deleted":"0","num_feature":"76","num_nodes":"61","size_leaf_vector":"1"}},{"base_weights":[1.9420509E-3,-3.230992E-1,1.4619386E-1,-5.013033E-1,8.3027974E-2,-3.578823E-1,2.0161732E-1,-6.4018804E-1,8.5302964E-2,1.7579529E-1,-1.297351E0,7.924014E-2,-5.7661307E-1,1.00349374E-1,4.6611303E-1,3.614539E-1,-7.074096E-1,5.340388E-1,-5.8479166E-1,2.5891256E-1,-1.0952604E0,-5.5570994E-2,5.4900583E-2,2.670275E-1,-6.0004745E-2,-1.2009126E0,-2.7764994E-1,3.492414E-1,-3.3350833E-2,1.9365784E-2,6.309612E-1,-5.8863625E-2,4.0405616E-2,-1.1602087E-2,-3.488694E-2,4.287189E-2,-3.8331565E-3,5.405632E-2,-2.9211072E-2,5.570389E-3,3.492351E-2,-5.7570994E-2,2.0072786E-2,-5.9287023E-2,1.7534597E-2,2.5970954E-2,-5.17353E-2,-3.6581606E-2,5.696508E-3,1.5081702E-2,-6.0015075E-2,-1.5633207E-2,1.3245613E-2,1.737446E-2,-6.2437706E-2,-3.785266E-2,2.7594678E-2],"categories":[],"categories_nodes":[],"categories_segments":[],"categories_sizes":[],"default_left":[0,0,0,0,0,0,0,0,0,0,0,0,0,0,0,0,0,0,0,0,0,0,0,0,0,0,0,0,0,0,0,0,0,0,0,0,0,0,0,0,0,0,0,0,0,0,0,0,0,0,0,0,0,0,0,0,0],"id":20,"left_children":[1,3,5,7,9,11,13,15,17,19,21,23,25,27,29,31,33,35,37,39,41,-1,-1,43,-1,45,47,49,51,53,55,-1,-1,-1,-1,-1,-1,-1,-1,-1,-1,-1,-1,-1,-1,-1,-1,-1,-1,-1,-1,-1,-1,-1,-1,-1,-1],"loss_changes":[1.2458138E3,5.9112714E2,5.142072E2,4.6252673E2,3.1928784E2,1.7437889E2,4.4406378E2,3.0930774E2,3.2734134E2,2.4702997E2,4.0443604E1,1.810119E2,2.2650531E2,3.9904382E2,3.380465E2,3.4551886E2,2.955515E2,2.2091142E2,1.2399385E2,1.610398E2,7.958911E1,0E0,0E0,1.6402095E2,0E0,6.811932E1,2.2034172E2,2.1604977E2,1.0166788E3,8.1278546E2,3.121869E2,0E0,0E0,0E0,0E0,0E0,0E0,0E0,0E0,0E0,0E0,0E0,0E0,0E0,0E0,0E0,0E0,0E0,0E0,0E0,0E0,0E0,0E0,0E0,0E0,0E0,0E0],"parents":[2147483647,0,0,1,1,2,2,3,3,4,4,5,5,6,6,7,7,8,8,9,9,10,10,11,11,12,12,13,13,14,14,15,15,16,16,17,17,18,18,19,19,20,20,23,23,25,25,26,26,27,27,28,28,29,29,30,30],"right_children":[2,4,6,8,10,12,14,16,18,20,22,24,26,28,30,32,34,36,38,40,42,-1,-1,44,-1,46,48,50,52,54,56,-1,-1,-1,-1,-1,-1,-1,-1,-1,-1,-1,-1,-1,-1,-1,-1,-1,-1,-1,-1,-1,-1,-1,-1,-1,-1],"split_conditions":[2.6998231E-2,1.176473E5,1.189889E3,4.754526E3,3.449792E-2,1.9793088E-2,3.300804E8,1.8755646E-2,-2.0796244E-3,2.6472764E-2,1.234183E5,1.2729788E-2,3.0147117E-2,1.7442975E12,9.121865E4,1.131643E5,-6.626934E-3,1.7504732E12,-8.820256E-3,1.62675E-2,1.195036E5,-5.5570994E-2,5.4900583E-2,1.058195E-2,-6.0004745E-2,-5.9642352E-2,-2.5204867E-3,2.0818124E-3,1.079948E5,8.89854E4,-4.500679E-2,-5.8863625E-2,4.0405616E-2,-1.1602087E-2,-3.488694E-2,4.287189E-2,-3.8331565E-3,5.405632E-2,-2.9211072E-2,5.570389E-3,3.492351E-2,-5.7570994E-2,2.0072786E-2,-5.9287023E-2,1.7534597E-2,2.5970954E-2,-5.17353E-2,-3.6581606E-2,5.696508E-3,1.5081702E-2,-6.0015075E-2,-1.5633207E-2,1.3245613E-2,1.737446E-2,-6.2437706E-2,-3.785266E-2,2.7594678E-2],"split_indices":[70,20,14,14,66,71,29,70,65,70,1,66,71,0,19,3,65,0,32,65,3,0,0,71,0,35,67,67,3,3,65,0,0,0,0,0,0,0,0,0,0,0,0,0,0,0,0,0,0,0,0,0,0,0,0,0,0],"split_type":[0,0,0,0,0,0,0,0,0,0,0,0,0,0,0,0,0,0,0,0,0,0,0,0,0,0,0,0,0,0,0,0,0,0,0,0,0,0,0,0,0,0,0,0,0,0,0,0,0,0,0,0,0,0,0,0,0],"sum_hessian":[2.6568104E4,8.1661514E3,1.8401951E4,5.6755493E3,2.4906023E3,1.8223378E3,1.6579613E4,4.5889736E3,1.0865756E3,2.334581E3,1.560211E2,6.079727E2,1.214365E3,1.1990261E4,4.5893535E3,2.883286E2,4.300645E3,6.5089795E2,4.3567752E2,2.1920352E3,1.4254599E2,1.5129175E2,4.729351E0,5.441086E2,6.3864143E1,3.9224854E2,8.221165E2,4.1895386E3,7.8007227E3,1.237306E3,3.352047E3,7.503311E1,2.1329552E2,1.218038E3,3.0826072E3,3.5074384E2,3.001541E2,2.9869408E1,4.0580814E2,1.835644E3,3.5639114E2,1.1736427E2,2.5181713E1,4.7859093E1,4.9624948E2,1.8384302E1,3.7386423E2,3.2626428E2,4.9585223E2,4.128283E3,6.1255085E1,3.938205E3,3.8625173E3,9.805378E2,2.5676828E2,1.2013778E2,3.2319094E3],"tree_param":{"num_deleted":"0","num_feature":"76","num_nodes":"57","size_leaf_vector":"1"}},{"base_weights":[3.95242E-3,-3.169718E-1,1.4454116E-1,-5.077206E-1,1.0556204E-1,-3.314852E-1,1.9655275E-1,-6.46458E-2,-6.862387E-1,1.7039868E-1,-1.005497E0,-3.900372E-1,1.1494019E0,1.0218248E-1,4.433251E-1,-9.228271E-1,3.6238998E-1,-1.3723086E0,-4.713203E-1,3.4782E-1,-3.213802E-1,-1.3389784E0,4.331367E-1,-3.1005645E-1,-6.121771E-2,1.3684089E0,-7.3075786E-2,1.2858409E-1,-1.426555E0,5.327189E-4,6.070866E-1,-6.345418E-2,-1.2640928E-2,3.1636797E-2,-1.8332588E-2,-5.8199327E-2,-2.5555892E-2,-6.006365E-3,-4.083584E-2,3.7714876E-3,3.9346777E-2,-5.3664565E-2,1.7677423E-2,-6.290217E-2,5.6893796E-2,-6.132933E-2,4.7147624E-2,-1.6195355E-2,3.597156E-2,1.5476113E-2,5.695228E-2,6.2172883E-4,1.6897034E-2,-6.962382E-2,2.6334621E-2,1.5617179E-2,-5.7438288E-2,-3.2470576E-2,2.6519625E-2],"categories":[],"categories_nodes":[],"categories_segments":[],"categories_sizes":[],"default_left":[0,0,0,0,0,0,0,0,0,0,0,0,0,0,0,0,0,0,0,0,0,0,0,0,0,0,0,0,0,0,0,0,0,0,0,0,0,0,0,0,0,0,0,0,0,0,0,0,0,0,0,0,0,0,0,0,0,0,0],"id":21,"left_children":[1,3,5,7,9,11,13,15,17,19,21,23,25,27,29,31,33,35,37,39,41,43,45,47,-1,49,-1,51,53,55,57,-1,-1,-1,-1,-1,-1,-1,-1,-1,-1,-1,-1,-1,-1,-1,-1,-1,-1,-1,-1,-1,-1,-1,-1,-1,-1,-1,-1],"loss_changes":[1.1982526E3,6.5211035E2,4.5730542E2,4.4085132E2,1.814989E2,1.5820976E2,3.8768298E2,5.8741187E2,5.851918E2,2.0770168E2,6.7234985E1,1.5923352E2,4.7772797E1,4.86329E2,3.339474E2,2.1392441E2,3.7681848E2,5.6504517E1,5.341087E2,2.818443E2,4.9222705E2,7.51413E1,4.1244583E1,1.8814911E2,0E0,2.9978943E0,0E0,3.9331644E2,1.3508737E2,6.975251E2,2.6721033E2,0E0,0E0,0E0,0E0,0E0,0E0,0E0,0E0,0E0,0E0,0E0,0E0,0E0,0E0,0E0,0E0,0E0,0E0,0E0,0E0,0E0,0E0,0E0,0E0,0E0,0E0,0E0,0E0],"parents":[2147483647,0,0,1,1,2,2,3,3,4,4,5,5,6,6,7,7,8,8,9,9,10,10,11,11,12,12,13,13,14,14,15,15,16,16,17,17,18,18,19,19,20,20,21,21,22,22,23,23,25,25,27,27,28,28,29,29,30,30],"right_children":[2,4,6,8,10,12,14,16,18,20,22,24,26,28,30,32,34,36,38,40,42,44,46,48,-1,50,-1,52,54,56,58,-1,-1,-1,-1,-1,-1,-1,-1,-1,-1,-1,-1,-1,-1,-1,-1,-1,-1,-1,-1,-1,-1,-1,-1,-1,-1,-1,-1],"split_conditions":[2.6998231E-2,1.176473E5,1.189889E3,1.7504732E12,2.6472764E-2,1.186415E5,3.300804E8,1.03616234E5,1.1093334E5,2.2648219E8,1.194758E5,1.1501795E5,1.217933E5,1.7613185E12,9.121865E4,4.5811036E-3,-2.0796244E-3,2.5605964E-3,9.2290965E-4,1.1993053E5,1.229881E5,4.9971232E0,-3.2071817E-5,1.119224E5,-6.121771E-2,-1.3288226E-3,-7.3075786E-2,1.087001E5,1.156399E5,8.9136E4,-4.500679E-2,-6.345418E-2,-1.2640928E-2,3.1636797E-2,-1.8332588E-2,-5.8199327E-2,-2.5555892E-2,-6.006365E-3,-4.083584E-2,3.7714876E-3,3.9346777E-2,-5.3664565E-2,1.7677423E-2,-6.290217E-2,5.6893796E-2,-6.132933E-2,4.7147624E-2,-1.6195355E-2,3.597156E-2,1.5476113E-2,5.695228E-2,6.2172883E-4,1.6897034E-2,-6.962382E-2,2.6334621E-2,1.5617179E-2,-5.7438288E-2,-3.2470576E-2,2.6519625E-2],"split_indices":[70,20,14,0,70,12,29,20,20,29,17,20,11,0,19,67,65,67,67,20,6,46,58,10,0,33,0,1,11,4,65,0,0,0,0,0,0,0,0,0,0,0,0,0,0,0,0,0,0,0,0,0,0,0,0,0,0,0,0],"split_type":[0,0,0,0,0,0,0,0,0,0,0,0,0,0,0,0,0,0,0,0,0,0,0,0,0,0,0,0,0,0,0,0,0,0,0,0,0,0,0,0,0,0,0,0,0,0,0,0,0,0,0,0,0,0,0,0,0,0,0],"sum_hessian":[2.655598E4,8.089254E3,1.8466727E4,5.573121E3,2.5161328E3,1.818438E3,1.664829E4,1.6009614E3,3.9721597E3,2.378198E3,1.3793481E2,1.7499829E3,6.845501E1,1.20438955E4,4.6043926E3,5.315615E2,1.0693999E3,9.4621954E2,3.0259402E3,1.7478948E3,6.303033E2,1.1203411E2,2.5900707E1,1.6364824E3,1.1350052E2,6.426629E1,4.188724E0,1.1840327E4,2.0356897E2,1.2433955E3,3.360997E3,2.531419E2,2.7841962E2,7.025832E2,3.6681668E2,8.4947754E2,9.674206E1,1.9106608E3,1.1152793E3,1.25045E3,4.9744476E2,2.6943018E2,3.6087308E2,1.0369337E2,8.340747E0,6.8300943E0,1.9070614E1,1.5181094E3,1.18373055E2,3.8600771E0,6.0406208E1,8.551587E3,3.2887405E3,1.7706392E2,2.6505041E1,9.785284E2,2.6486716E2,1.26893936E2,3.234103E3],"tree_param":{"num_deleted":"0","num_feature":"76","num_nodes":"59","size_leaf_vector":"1"}},{"base_weights":[-3.281909E-3,-3.88047E-1,9.553733E-2,-5.3827137E-1,4.1981462E-1,-2.7192038E-1,1.6609567E-1,-2.2501045E-1,-9.927215E-1,9.619663E-1,-2.978698E-1,-3.3814722E-1,8.6820066E-1,2.3490874E-1,-1.5811223E-1,-6.332709E-1,2.491245E-1,-1.398804E0,-6.065928E-1,-8.201848E-1,1.0991833E0,-1.163303E0,8.340657E-1,-2.3770136E-1,-1.251821E0,1.1374465E0,-7.100219E-1,2.1426255E-1,1.0455455E0,9.433772E-2,-5.9207416E-1,8.6380355E-3,-3.6358874E-2,2.2078233E-2,-3.212191E-2,-5.7600737E-2,3.782046E-2,-5.726433E-3,-6.0390018E-2,-7.2157346E-2,6.35098E-2,-8.26662E-2,4.5380328E-2,-5.9212666E-2,1.8534843E-2,5.3353414E-2,-4.6071924E-2,-1.3256081E-2,2.4080267E-2,2.8414456E-2,-5.747365E-2,5.0435383E-2,-3.784612E-2,6.023352E-2,-7.723101E-2,5.36404E-3,1.6216416E-2,-6.981213E-2,4.73572E-2,-1.4758825E-2,2.459017E-2,-3.4410134E-2,4.345153E-2],"categories":[],"categories_nodes":[],"categories_segments":[],"categories_sizes":[],"default_left":[0,0,0,0,0,0,0,0,0,0,0,0,0,0,0,0,0,0,0,0,0,0,0,0,0,0,0,0,0,0,0,0,0,0,0,0,0,0,0,0,0,0,0,0,0,0,0,0,0,0,0,0,0,0,0,0,0,0,0,0,0,0,0],"id":22,"left_children":[1,3,5,7,9,11,13,15,17,19,21,23,25,27,29,31,33,35,37,39,41,43,45,47,49,51,53,55,57,59,61,-1,-1,-1,-1,-1,-1,-1,-1,-1,-1,-1,-1,-1,-1,-1,-1,-1,-1,-1,-1,-1,-1,-1,-1,-1,-1,-1,-1,-1,-1,-1,-1],"loss_changes":[1.0003207E3,6.5267773E2,5.4277277E2,6.451903E2,3.284957E2,2.5492871E2,3.918271E2,5.1989355E2,2.8917383E2,1.1846762E2,3.573155E2,2.922746E2,7.959726E1,2.4223853E2,3.3697464E2,3.3804816E2,3.9649854E2,8.839258E1,3.9735623E2,8.563628E1,5.2313843E1,1.07207245E2,1.585409E2,2.2628328E2,1.1556909E2,4.2030502E1,7.766894E1,2.1643195E2,1.4092798E2,4.6923346E2,5.100923E2,0E0,0E0,0E0,0E0,0E0,0E0,0E0,0E0,0E0,0E0,0E0,0E0,0E0,0E0,0E0,0E0,0E0,0E0,0E0,0E0,0E0,0E0,0E0,0E0,0E0,0E0,0E0,0E0,0E0,0E0,0E0,0E0],"parents":[2147483647,0,0,1,1,2,2,3,3,4,4,5,5,6,6,7,7,8,8,9,9,10,10,11,11,12,12,13,13,14,14,15,15,16,16,17,17,18,18,19,19,20,20,21,21,22,22,23,23,24,24,25,25,26,26,27,27,28,28,29,29,30,30],"right_children":[2,4,6,8,10,12,14,16,18,20,22,24,26,28,30,32,34,36,38,40,42,44,46,48,50,52,54,56,58,60,62,-1,-1,-1,-1,-1,-1,-1,-1,-1,-1,-1,-1,-1,-1,-1,-1,-1,-1,-1,-1,-1,-1,-1,-1,-1,-1,-1,-1,-1,-1,-1,-1],"split_conditions":[2.5385618E-2,1.20040055E5,1.421487E3,1.2455692E-3,1.755245E12,1.1824514E5,3.3360617E-3,1.1441462E5,2.7738877E-3,1.7804049E-2,1.2411411E5,1.1501795E5,1.29581E3,2.80474E-3,3.032834E-2,2.0117866E-2,3.9483616E-3,8.502933E0,2.6382424E-2,1.234947E5,1.186525E5,1.237429E5,2.5434345E-2,1.11574625E5,-4.35654E-3,6.011612E-3,1.1839E5,3.300804E8,8.4129E4,1.079948E5,9.301597E-2,8.6380355E-3,-3.6358874E-2,2.2078233E-2,-3.212191E-2,-5.7600737E-2,3.782046E-2,-5.726433E-3,-6.0390018E-2,-7.2157346E-2,6.35098E-2,-8.26662E-2,4.5380328E-2,-5.9212666E-2,1.8534843E-2,5.3353414E-2,-4.6071924E-2,-1.3256081E-2,2.4080267E-2,2.8414456E-2,-5.747365E-2,5.0435383E-2,-3.784612E-2,6.023352E-2,-7.723101E-2,5.36404E-3,1.6216416E-2,-6.981213E-2,4.73572E-2,-1.4758825E-2,2.459017E-2,-3.4410134E-2,4.345153E-2],"split_indices":[70,19,14,67,0,19,67,20,67,71,21,20,14,67,71,70,66,46,66,2,3,20,71,19,33,33,2,29,3,3,66,0,0,0,0,0,0,0,0,0,0,0,0,0,0,0,0,0,0,0,0,0,0,0,0,0,0,0,0,0,0,0,0],"split_type":[0,0,0,0,0,0,0,0,0,0,0,0,0,0,0,0,0,0,0,0,0,0,0,0,0,0,0,0,0,0,0,0,0,0,0,0,0,0,0,0,0,0,0,0,0,0,0,0,0,0,0,0,0,0,0,0,0,0,0,0,0,0,0],"sum_hessian":[2.6306889E4,5.3751475E3,2.093174E4,4.532626E3,8.425219E2,3.3713552E3,1.7560385E4,2.6839941E3,1.8486317E3,4.7976126E2,3.6276062E2,3.1869373E3,1.8441798E2,1.4486008E4,3.0743767E3,1.4420023E3,1.2419917E3,8.9975653E2,9.488752E2,3.3942657E1,4.458186E2,2.0556558E2,1.5719505E2,2.872415E3,3.1452237E2,1.577799E2,2.6638075E1,1.4127459E4,3.5854938E2,1.944171E3,1.1302057E3,3.534653E2,1.0885371E3,9.647867E2,2.77205E2,8.845906E2,1.5165931E1,6.278624E2,3.210128E2,2.427575E1,9.66691E0,4.2850666E0,4.4153354E2,1.7211333E2,3.3452248E1,1.25851204E2,3.134384E1,2.5846108E3,2.8780417E2,2.6857115E1,2.8766525E2,1.4932814E2,8.451757E0,9.379419E0,1.7258656E1,9.954534E3,4.1729243E3,1.6390217E1,3.4215918E2,1.028672E3,9.154991E2,9.7491516E2,1.5529057E2],"tree_param":{"num_deleted":"0","num_feature":"76","num_nodes":"63","size_leaf_vector":"1"}},{"base_weights":[7.510805E-3,-3.198072E-1,1.0704395E-1,5.767058E-2,-4.6548906E-1,4.478373E-3,3.624933E-1,2.3107019E-1,-1.4585383E0,-7.9537E-1,-1.7752302E-1,3.0564576E-1,-1.16465256E-1,-1.02427E0,4.1186467E-1,8.5672927E-1,-9.804794E-2,-1.5791909E0,5.9847303E-2,-9.5114344E-1,3.4707364E-1,8.4070736E-1,-4.0153936E-1,8.325632E-1,2.2052513E-1,-1.1088855E0,-6.8470724E-2,-6.865675E-1,-8.1197545E-2,6.418714E-1,1.8258764E-1,3.9051063E-2,-6.1390717E-2,-4.800257E-2,6.350613E-3,-6.466813E-2,-1.6959224E-2,-1.1044457E-2,-4.5768652E-2,6.2572986E-2,-1.1641145E-3,-3.260642E-2,4.0726904E-2,-3.6095507E-2,-8.800855E-3,-7.699252E-2,3.7885033E-2,4.481131E-3,3.422125E-2,-1.1489839E-2,-5.4390855E-2,1.2368249E-2,-8.990723E-3,-4.67512E-2,2.5932655E-2,2.7532468E-2,-7.889327E-3,-5.1454157E-2,1.091546E-2],"categories":[],"categories_nodes":[],"categories_segments":[],"categories_sizes":[],"default_left":[0,0,0,0,0,0,0,0,0,0,0,0,0,0,0,0,0,0,0,0,0,0,0,0,0,0,0,0,0,0,0,0,0,0,0,0,0,0,0,0,0,0,0,0,0,0,0,0,0,0,0,0,0,0,0,0,0,0,0],"id":23,"left_children":[1,3,5,7,9,11,13,15,17,19,21,23,25,27,29,31,33,35,-1,37,39,41,43,45,47,49,51,53,-1,55,57,-1,-1,-1,-1,-1,-1,-1,-1,-1,-1,-1,-1,-1,-1,-1,-1,-1,-1,-1,-1,-1,-1,-1,-1,-1,-1,-1,-1],"loss_changes":[8.589706E2,3.3811444E2,5.2970984E2,4.5067267E2,4.2126294E2,5.2551764E2,3.9698273E2,3.167749E2,6.5079315E1,3.6822888E2,5.408906E2,1.8522491E2,4.9022894E2,6.632779E1,2.9486523E2,1.5309506E2,2.856692E2,6.6602173E0,0E0,2.3682007E2,1.13965294E2,1.2650586E2,1.7645721E2,1.8332254E2,2.4519284E2,9.748193E1,5.79748E2,9.782045E1,0E0,1.0893445E2,3.7210693E2,0E0,0E0,0E0,0E0,0E0,0E0,0E0,0E0,0E0,0E0,0E0,0E0,0E0,0E0,0E0,0E0,0E0,0E0,0E0,0E0,0E0,0E0,0E0,0E0,0E0,0E0,0E0,0E0],"parents":[2147483647,0,0,1,1,2,2,3,3,4,4,5,5,6,6,7,7,8,8,9,9,10,10,11,11,12,12,13,13,14,14,15,15,16,16,17,17,19,19,20,20,21,21,22,22,23,23,24,24,25,25,26,26,27,27,29,29,30,30],"right_children":[2,4,6,8,10,12,14,16,18,20,22,24,26,28,30,32,34,36,-1,38,40,42,44,46,48,50,52,54,-1,56,58,-1,-1,-1,-1,-1,-1,-1,-1,-1,-1,-1,-1,-1,-1,-1,-1,-1,-1,-1,-1,-1,-1,-1,-1,-1,-1,-1,-1],"split_conditions":[1.610764E3,9.584319E4,2.8860006E8,5.2030105E-2,2.2560893E8,3.2078026E7,-7.439159E-2,-5.7345433E-3,1.8134614E-2,1.1824514E5,2.2816944E8,2.3566501E-2,-2.0990815E-2,1.0335684E5,-1.051289E-2,6.99364E-3,-1.2331783E-3,1E0,5.9847303E-2,8.983771E7,1.184295E5,-1.6937269E0,8.39186E2,1.058195E-2,1.733213E-2,-3.818093E-2,-6.5849456E-3,1.0194632E5,-8.1197545E-2,3.5897606E8,-6.5996647E-3,3.9051063E-2,-6.1390717E-2,-4.800257E-2,6.350613E-3,-6.466813E-2,-1.6959224E-2,-1.1044457E-2,-4.5768652E-2,6.2572986E-2,-1.1641145E-3,-3.260642E-2,4.0726904E-2,-3.6095507E-2,-8.800855E-3,-7.699252E-2,3.7885033E-2,4.481131E-3,3.422125E-2,-1.1489839E-2,-5.4390855E-2,1.2368249E-2,-8.990723E-3,-4.67512E-2,2.5932655E-2,2.7532468E-2,-7.889327E-3,-5.1454157E-2,1.091546E-2],"split_indices":[14,20,29,71,29,29,66,65,33,19,29,71,65,19,65,33,65,61,0,29,13,34,14,71,33,65,65,20,0,29,65,0,0,0,0,0,0,0,0,0,0,0,0,0,0,0,0,0,0,0,0,0,0,0,0,0,0,0,0],"split_type":[0,0,0,0,0,0,0,0,0,0,0,0,0,0,0,0,0,0,0,0,0,0,0,0,0,0,0,0,0,0,0,0,0,0,0,0,0,0,0,0,0,0,0,0,0,0,0,0,0,0,0,0,0,0,0,0,0,0,0],"sum_hessian":[2.636373E4,6.146978E3,2.0216752E4,1.7118889E3,4.4350894E3,1.44257E4,5.791052E3,1.5369634E3,1.7492558E2,2.0662847E3,2.3688047E3,4.132827E3,1.0292873E4,1.984056E2,5.592646E3,5.29249E2,1.0077143E3,1.685102E2,6.415381E0,1.8184979E3,2.4778676E2,4.2667392E2,1.9421307E3,5.7356134E2,3.5592656E3,4.7379245E2,9.819081E3,1.4978922E2,4.861638E1,2.7909817E3,2.8016643E3,5.0461578E2,2.4633213E1,1.8975975E2,8.179546E2,1.6282346E2,5.686733E0,4.0498767E2,1.4135103E3,5.775186E1,1.900349E2,4.0953888E1,3.8572003E2,5.155747E2,1.426556E3,2.2249235E1,5.513121E2,3.040879E3,5.183867E2,1.1133156E2,3.624609E2,2.873815E3,6.9452656E3,1.10130264E2,3.9658955E1,2.6447856E3,1.4619614E2,1.6148314E2,2.6401812E3],"tree_param":{"num_deleted":"0","num_feature":"76","num_nodes":"59","size_leaf_vector":"1"}},{"base_weights":[2.4217737E-3,-3.6862808E-1,9.68137E-2,-5.1160514E-1,4.2213413E-1,-2.2444925E-1,1.6603069E-1,-2.2795087E-1,-9.1882694E-1,8.906138E-1,-1.7266619E-1,1.0508379E-1,-4.2594296E-1,2.3216951E-1,-1.4620012E-1,-6.676618E-1,2.192714E-1,-1.3567003E0,-5.18755E-1,-9.796152E-1,1.0448133E0,-1.0275357E0,8.688929E-1,4.9488753E-1,-7.8962743E-1,-6.486375E-1,1.4341757E-1,2.0907873E-1,1.0587717E0,8.986943E-1,-2.562397E-1,9.681266E-3,-4.0034432E-2,-5.912084E-2,1.485696E-2,-5.562914E-2,3.5638507E-2,-2.1700696E-3,-5.8965977E-2,-7.911845E-2,5.5273786E-2,4.435472E-2,-4.121072E-2,-5.9637375E-2,2.7764717E-2,5.4230537E-2,-5.148519E-2,2.3353972E-2,-6.101875E-2,-4.0148836E-2,3.760783E-2,-2.0378143E-2,-6.309826E-2,-2.5607614E-2,1.5953494E-2,9.762139E-3,-8.526726E-3,-6.748814E-2,4.6909247E-2,1.6423384E-2,6.5042496E-2,-2.5460808E-2,4.9503464E-3],"categories":[],"categories_nodes":[],"categories_segments":[],"categories_sizes":[],"default_left":[0,0,0,0,0,0,0,0,0,0,0,0,0,0,0,0,0,0,0,0,0,0,0,0,0,0,0,0,0,0,0,0,0,0,0,0,0,0,0,0,0,0,0,0,0,0,0,0,0,0,0,0,0,0,0,0,0,0,0,0,0,0,0],"id":24,"left_children":[1,3,5,7,9,11,13,15,17,19,21,23,25,27,29,31,33,35,37,39,41,43,45,47,49,51,53,55,57,59,61,-1,-1,-1,-1,-1,-1,-1,-1,-1,-1,-1,-1,-1,-1,-1,-1,-1,-1,-1,-1,-1,-1,-1,-1,-1,-1,-1,-1,-1,-1,-1,-1],"loss_changes":[9.200284E2,6.025202E2,4.6570264E2,5.209707E2,2.2761008E2,2.4654922E2,3.5583664E2,5.233927E2,3.2375977E2,1.3275558E2,3.2186923E2,4.9196094E2,2.922264E2,2.7116217E2,3.4658978E2,4.0699158E2,3.414087E2,6.882678E1,4.301588E2,8.597681E1,5.729767E1,1.593569E2,1.7289044E2,1.774552E2,1.5949124E2,2.133294E2,1.3007498E2,2.0434015E2,1.2281442E2,1.0130998E2,3.9401935E2,0E0,0E0,0E0,0E0,0E0,0E0,0E0,0E0,0E0,0E0,0E0,0E0,0E0,0E0,0E0,0E0,0E0,0E0,0E0,0E0,0E0,0E0,0E0,0E0,0E0,0E0,0E0,0E0,0E0,0E0,0E0,0E0],"parents":[2147483647,0,0,1,1,2,2,3,3,4,4,5,5,6,6,7,7,8,8,9,9,10,10,11,11,12,12,13,13,14,14,15,15,16,16,17,17,18,18,19,19,20,20,21,21,22,22,23,23,24,24,25,25,26,26,27,27,28,28,29,29,30,30],"right_children":[2,4,6,8,10,12,14,16,18,20,22,24,26,28,30,32,34,36,38,40,42,44,46,48,50,52,54,56,58,60,62,-1,-1,-1,-1,-1,-1,-1,-1,-1,-1,-1,-1,-1,-1,-1,-1,-1,-1,-1,-1,-1,-1,-1,-1,-1,-1,-1,-1,-1,-1,-1,-1],"split_conditions":[2.5385618E-2,1.20040055E5,1.489909E3,1.2455692E-3,1.755245E12,-1.8034593E-3,3.3360617E-3,1.144487E5,2.7738877E-3,1.7804049E-2,1.241923E5,4.5078408E-2,3.3590596E-2,2.80474E-3,2.553496E-2,2.0117866E-2,8.39186E2,8.502933E0,2.6382424E-2,1.234947E5,9.107481E3,1.237429E5,2.5434345E-2,3.8836684E-2,1.111451E5,3.6823623E-2,2.919253E-2,3.8836684E-2,8.39954E4,2.4466803E-3,1.079719E5,9.681266E-3,-4.0034432E-2,-5.912084E-2,1.485696E-2,-5.562914E-2,3.5638507E-2,-2.1700696E-3,-5.8965977E-2,-7.911845E-2,5.5273786E-2,4.435472E-2,-4.121072E-2,-5.9637375E-2,2.7764717E-2,5.4230537E-2,-5.148519E-2,2.3353972E-2,-6.101875E-2,-4.0148836E-2,3.760783E-2,-2.0378143E-2,-6.309826E-2,-2.5607614E-2,1.5953494E-2,9.762139E-3,-8.526726E-3,-6.748814E-2,4.6909247E-2,1.6423384E-2,6.5042496E-2,-2.5460808E-2,4.9503464E-3],"split_indices":[70,19,14,67,0,67,67,11,67,71,1,71,71,67,70,70,14,46,66,2,14,20,71,66,1,70,70,66,7,33,4,0,0,0,0,0,0,0,0,0,0,0,0,0,0,0,0,0,0,0,0,0,0,0,0,0,0,0,0,0,0,0,0],"split_type":[0,0,0,0,0,0,0,0,0,0,0,0,0,0,0,0,0,0,0,0,0,0,0,0,0,0,0,0,0,0,0,0,0,0,0,0,0,0,0,0,0,0,0,0,0,0,0,0,0,0,0,0,0,0,0,0,0,0,0,0,0,0,0],"sum_hessian":[2.626641E4,5.326258E3,2.0940152E4,4.5109834E3,8.1527405E2,3.7114817E3,1.7228672E4,2.65982E3,1.8511635E3,4.5578723E2,3.5948685E2,1.4084725E3,2.303009E3,1.421732E4,3.0113518E3,1.3409244E3,1.3188958E3,8.826851E2,9.684783E2,3.4309296E1,4.2147794E2,1.9744525E2,1.620416E2,9.8136346E2,4.271091E2,1.6553939E3,6.4761505E2,1.3832177E4,3.8514307E2,2.862322E2,2.7251196E3,3.5955313E2,9.8137134E2,1.0778775E2,1.211108E3,8.6989667E2,1.2788443E1,6.523628E2,3.161155E2,2.4228638E1,1.0080657E1,4.093088E2,1.2169139E1,1.5567729E2,4.1767944E1,1.3249329E2,2.9548304E1,9.406549E2,4.0708565E1,3.8044293E2,4.6666164E1,1.441007E3,2.1438693E2,1.5883015E2,4.887849E2,1.2774486E4,1.0576902E3,1.4796658E1,3.703464E2,1.7222377E2,1.14008446E2,1.3617168E3,1.3634027E3],"tree_param":{"num_deleted":"0","num_feature":"76","num_nodes":"63","size_leaf_vector":"1"}},{"base_weights":[-8.0436683E-4,-4.6914026E-1,7.1252E-2,-1.4164897E0,-2.4289216E-1,-2.526072E-1,1.4427496E-1,-1.4447309E0,-9.999253E-1,7.2354865E-1,-4.997534E-1,6.0505997E-2,-4.1378218E-1,2.500145E-1,-2.5666298E-2,-6.0476854E-2,-1.3632969E0,3.762444E-1,-5.6297652E-2,1.1862433E0,-1.1323162E0,3.687357E-1,-6.646531E-1,2.488311E-1,-5.3261137E-1,2.1597444E-1,-6.617882E-1,2.3372678E-1,1.226226E0,-1.4382101E0,1.7456524E-2,-4.2246003E-2,-5.5616856E-2,-5.069168E-2,8.5773095E-2,1.0617746E-2,6.8696074E-2,-5.284856E-2,6.890134E-2,-2.4311969E-2,5.1583838E-2,-5.5454258E-2,-1.55013595E-2,3.069987E-2,5.7437754E-4,-3.9226755E-2,4.3028403E-2,1.4620396E-2,-5.5717796E-2,-2.9234005E-2,4.386219E-2,1.304841E-2,3.107206E-3,-3.7729822E-2,6.0299944E-2,-7.11801E-2,4.853129E-3,4.10814E-3,-2.3747157E-2],"categories":[],"categories_nodes":[],"categories_segments":[],"categories_sizes":[],"default_left":[0,0,0,0,0,0,0,0,0,0,0,0,0,0,0,0,0,0,0,0,0,0,0,0,0,0,0,0,0,0,0,0,0,0,0,0,0,0,0,0,0,0,0,0,0,0,0,0,0,0,0,0,0,0,0,0,0,0,0],"id":25,"left_children":[1,3,5,7,9,11,13,15,17,19,21,23,25,27,29,-1,31,33,-1,35,37,39,41,43,45,47,49,51,53,55,57,-1,-1,-1,-1,-1,-1,-1,-1,-1,-1,-1,-1,-1,-1,-1,-1,-1,-1,-1,-1,-1,-1,-1,-1,-1,-1,-1,-1],"loss_changes":[8.836775E2,7.4803625E2,5.367322E2,6.4716797E0,7.003293E2,2.1076508E2,3.327873E2,1.3746338E0,2.631113E1,5.1009906E2,3.193587E2,1.5873837E2,4.307312E2,1.8123254E2,4.327557E2,0E0,9.8132324E-1,3.553162E1,0E0,2.3172858E2,6.631271E1,3.2110355E2,3.7406433E2,1.311384E2,2.4788162E2,1.8809975E2,2.4102722E2,1.6204291E2,1.1560025E2,1.12237274E2,3.5925336E2,0E0,0E0,0E0,0E0,0E0,0E0,0E0,0E0,0E0,0E0,0E0,0E0,0E0,0E0,0E0,0E0,0E0,0E0,0E0,0E0,0E0,0E0,0E0,0E0,0E0,0E0,0E0,0E0],"parents":[2147483647,0,0,1,1,2,2,3,3,4,4,5,5,6,6,7,7,8,8,9,9,10,10,11,11,12,12,13,13,14,14,16,16,17,17,19,19,20,20,21,21,22,22,23,23,24,24,25,25,26,26,27,27,28,28,29,29,30,30],"right_children":[2,4,6,8,10,12,14,16,18,20,22,24,26,28,30,-1,32,34,-1,36,38,40,42,44,46,48,50,52,54,56,58,-1,-1,-1,-1,-1,-1,-1,-1,-1,-1,-1,-1,-1,-1,-1,-1,-1,-1,-1,-1,-1,-1,-1,-1,-1,-1,-1,-1],"split_conditions":[2.3649592E-2,1.1157839E5,1.489909E3,2.1382427E0,